<?xml version="1.0"?>
<opencv_storage>
<data type_id="opencv-haar-classifier">
  <size>
    24 24</size>
  <stages>
    <_>
      <trees>
        <_>
          <_>
            <feature>
              <rects>
                <_>
                  4 12 17 12 -1.</_>
                <_>
                  4 15 17 6 2.</_></rects>
              <tilted>0</tilted></feature>
            <threshold>-1.0202768445014954e-001</threshold>
            <left_val>5.8167332410812378e-001</left_val>
            <right_val>-9.1833591461181641e-001</right_val></_></_>
        <_>
          <_>
            <feature>
              <rects>
                <_>
                  8 20 10 4 -1.</_>
                <_>
                  8 22 10 2 2.</_></rects>
              <tilted>0</tilted></feature>
            <threshold>2.6688814163208008e-002</threshold>
            <left_val>-7.5330543518066406e-001</left_val>
            <right_val>4.9926802515983582e-001</right_val></_></_>
        <_>
          <_>
            <feature>
              <rects>
                <_>
                  0 16 4 7 -1.</_>
                <_>
                  2 16 2 7 2.</_></rects>
              <tilted>0</tilted></feature>
            <threshold>-6.9298604503273964e-003</threshold>
            <left_val>5.4137295484542847e-001</left_val>
            <right_val>-6.9621783494949341e-001</right_val></_></_>
        <_>
          <_>
            <feature>
              <rects>
                <_>
                  18 7 6 16 -1.</_>
                <_>
                  18 7 3 8 2.</_>
                <_>
                  21 15 3 8 2.</_></rects>
              <tilted>0</tilted></feature>
            <threshold>2.1583732217550278e-002</threshold>
            <left_val>-5.4367095232009888e-001</left_val>
            <right_val>7.0484828948974609e-001</right_val></_></_></trees>
      <stage_threshold>-1.6739393472671509e+000</stage_threshold>
      <parent>-1</parent>
      <next>-1</next></_>
    <_>
      <trees>
        <_>
          <_>
            <feature>
              <rects>
                <_>
                  4 20 16 4 -1.</_>
                <_>
                  4 22 16 2 2.</_></rects>
              <tilted>0</tilted></feature>
            <threshold>4.7682441771030426e-002</threshold>
            <left_val>-8.6010760068893433e-001</left_val>
            <right_val>4.3887776136398315e-001</right_val></_></_>
        <_>
          <_>
            <feature>
              <rects>
                <_>
                  3 11 5 12 -1.</_>
                <_>
                  3 15 5 4 3.</_></rects>
              <tilted>0</tilted></feature>
            <threshold>-2.7475282549858093e-002</threshold>
            <left_val>3.8882887363433838e-001</left_val>
            <right_val>-8.1226986646652222e-001</right_val></_></_>
        <_>
          <_>
            <feature>
              <rects>
                <_>
                  18 11 6 6 -1.</_>
                <_>
                  18 11 3 3 2.</_>
                <_>
                  21 14 3 3 2.</_></rects>
              <tilted>0</tilted></feature>
            <threshold>1.3789344578981400e-002</threshold>
            <left_val>-4.6803405880928040e-001</left_val>
            <right_val>6.3751423358917236e-001</right_val></_></_>
        <_>
          <_>
            <feature>
              <rects>
                <_>
                  16 17 2 3 -1.</_>
                <_>
                  17 17 1 3 2.</_></rects>
              <tilted>0</tilted></feature>
            <threshold>3.1871115788817406e-003</threshold>
            <left_val>-3.2134845852851868e-001</left_val>
            <right_val>7.7352112531661987e-001</right_val></_></_></trees>
      <stage_threshold>-1.3668904304504395e+000</stage_threshold>
      <parent>0</parent>
      <next>-1</next></_>
    <_>
      <trees>
        <_>
          <_>
            <feature>
              <rects>
                <_>
                  1 20 22 4 -1.</_>
                <_>
                  1 22 22 2 2.</_></rects>
              <tilted>0</tilted></feature>
            <threshold>5.2165310829877853e-002</threshold>
            <left_val>-8.5727030038833618e-001</left_val>
            <right_val>8.9837998151779175e-002</right_val></_></_>
        <_>
          <_>
            <feature>
              <rects>
                <_>
                  19 16 4 6 -1.</_>
                <_>
                  21 16 2 6 2.</_></rects>
              <tilted>0</tilted></feature>
            <threshold>1.0293634608387947e-002</threshold>
            <left_val>-6.4554315805435181e-001</left_val>
            <right_val>4.6564358472824097e-001</right_val></_></_>
        <_>
          <_>
            <feature>
              <rects>
                <_>
                  4 0 18 20 -1.</_>
                <_>
                  4 5 18 10 2.</_></rects>
              <tilted>0</tilted></feature>
            <threshold>1.0314947366714478e-001</threshold>
            <left_val>-6.0815471410751343e-001</left_val>
            <right_val>4.6993020176887512e-001</right_val></_></_>
        <_>
          <_>
            <feature>
              <rects>
                <_>
                  1 19 4 3 -1.</_>
                <_>
                  3 19 2 3 2.</_></rects>
              <tilted>0</tilted></feature>
            <threshold>-1.2122541666030884e-003</threshold>
            <left_val>3.5921823978424072e-001</left_val>
            <right_val>-7.5283873081207275e-001</right_val></_></_>
        <_>
          <_>
            <feature>
              <rects>
                <_>
                  9 12 13 12 -1.</_>
                <_>
                  9 15 13 6 2.</_></rects>
              <tilted>0</tilted></feature>
            <threshold>-8.5005134344100952e-002</threshold>
            <left_val>4.2804101109504700e-001</left_val>
            <right_val>-5.1435506343841553e-001</right_val></_></_>
        <_>
          <_>
            <feature>
              <rects>
                <_>
                  4 17 3 2 -1.</_>
                <_>
                  5 17 1 2 3.</_></rects>
              <tilted>0</tilted></feature>
            <threshold>2.4953125976026058e-003</threshold>
            <left_val>-3.4555864334106445e-001</left_val>
            <right_val>6.6096425056457520e-001</right_val></_></_></trees>
      <stage_threshold>-1.7032395601272583e+000</stage_threshold>
      <parent>1</parent>
      <next>-1</next></_>
    <_>
      <trees>
        <_>
          <_>
            <feature>
              <rects>
                <_>
                  5 14 4 6 -1.</_>
                <_>
                  5 14 2 3 2.</_>
                <_>
                  7 17 2 3 2.</_></rects>
              <tilted>0</tilted></feature>
            <threshold>-1.1865111067891121e-002</threshold>
            <left_val>5.3548389673233032e-001</left_val>
            <right_val>-7.1543622016906738e-001</right_val></_></_>
        <_>
          <_>
            <feature>
              <rects>
                <_>
                  0 14 4 7 -1.</_>
                <_>
                  2 14 2 7 2.</_></rects>
              <tilted>0</tilted></feature>
            <threshold>-1.6945879906415939e-002</threshold>
            <left_val>5.8849740028381348e-001</left_val>
            <right_val>-5.2828299999237061e-001</right_val></_></_>
        <_>
          <_>
            <feature>
              <rects>
                <_>
                  23 0 1 24 -1.</_>
                <_>
                  23 12 1 12 2.</_></rects>
              <tilted>0</tilted></feature>
            <threshold>6.9005498662590981e-003</threshold>
            <left_val>-5.5341070890426636e-001</left_val>
            <right_val>4.5527192950248718e-001</right_val></_></_>
        <_>
          <_>
            <feature>
              <rects>
                <_>
                  7 7 8 15 -1.</_>
                <_>
                  7 12 8 5 3.</_></rects>
              <tilted>0</tilted></feature>
            <threshold>1.0576649010181427e-001</threshold>
            <left_val>-3.4462067484855652e-001</left_val>
            <right_val>7.3370587825775146e-001</right_val></_></_></trees>
      <stage_threshold>-1.1330679655075073e+000</stage_threshold>
      <parent>2</parent>
      <next>-1</next></_>
    <_>
      <trees>
        <_>
          <_>
            <feature>
              <rects>
                <_>
                  4 20 15 4 -1.</_>
                <_>
                  4 22 15 2 2.</_></rects>
              <tilted>0</tilted></feature>
            <threshold>5.9129387140274048e-002</threshold>
            <left_val>-7.7811551094055176e-001</left_val>
            <right_val>2.5619834661483765e-001</right_val></_></_>
        <_>
          <_>
            <feature>
              <rects>
                <_>
                  4 11 17 6 -1.</_>
                <_>
                  4 14 17 3 2.</_></rects>
              <tilted>0</tilted></feature>
            <threshold>-7.5417153537273407e-002</threshold>
            <left_val>5.4084402322769165e-001</left_val>
            <right_val>-4.9293196201324463e-001</right_val></_></_>
        <_>
          <_>
            <feature>
              <rects>
                <_>
                  6 12 3 12 -1.</_>
                <_>
                  7 16 1 4 9.</_></rects>
              <tilted>0</tilted></feature>
            <threshold>-3.2237254083156586e-002</threshold>
            <left_val>3.5153636336326599e-001</left_val>
            <right_val>-5.3181654214859009e-001</right_val></_></_>
        <_>
          <_>
            <feature>
              <rects>
                <_>
                  13 16 2 4 -1.</_>
                <_>
                  14 16 1 4 2.</_></rects>
              <tilted>0</tilted></feature>
            <threshold>-1.3594997581094503e-003</threshold>
            <left_val>-8.4751433134078979e-001</left_val>
            <right_val>1.9963677227497101e-001</right_val></_></_>
        <_>
          <_>
            <feature>
              <rects>
                <_>
                  13 15 2 7 -1.</_>
                <_>
                  14 15 1 7 2.</_></rects>
              <tilted>0</tilted></feature>
            <threshold>1.4240967575460672e-003</threshold>
            <left_val>3.3001804351806641e-001</left_val>
            <right_val>-8.0588185787200928e-001</right_val></_></_>
        <_>
          <_>
            <feature>
              <rects>
                <_>
                  12 9 8 3 -1.</_>
                <_>
                  14 11 4 3 2.</_></rects>
              <tilted>1</tilted></feature>
            <threshold>4.1462197899818420e-002</threshold>
            <left_val>-3.0966150760650635e-001</left_val>
            <right_val>8.0906218290328979e-001</right_val></_></_></trees>
      <stage_threshold>-1.6000469923019409e+000</stage_threshold>
      <parent>3</parent>
      <next>-1</next></_>
    <_>
      <trees>
        <_>
          <_>
            <feature>
              <rects>
                <_>
                  6 20 14 3 -1.</_>
                <_>
                  6 21 14 1 3.</_></rects>
              <tilted>0</tilted></feature>
            <threshold>-2.9979174956679344e-002</threshold>
            <left_val>6.4406782388687134e-001</left_val>
            <right_val>-6.7263424396514893e-001</right_val></_></_>
        <_>
          <_>
            <feature>
              <rects>
                <_>
                  2 12 19 12 -1.</_>
                <_>
                  2 15 19 6 2.</_></rects>
              <tilted>0</tilted></feature>
            <threshold>-1.6146327555179596e-001</threshold>
            <left_val>4.0357732772827148e-001</left_val>
            <right_val>-5.4729717969894409e-001</right_val></_></_>
        <_>
          <_>
            <feature>
              <rects>
                <_>
                  16 18 4 1 -1.</_>
                <_>
                  17 18 2 1 2.</_></rects>
              <tilted>0</tilted></feature>
            <threshold>1.5566757647320628e-003</threshold>
            <left_val>-3.6544361710548401e-001</left_val>
            <right_val>6.2608599662780762e-001</right_val></_></_>
        <_>
          <_>
            <feature>
              <rects>
                <_>
                  6 12 4 4 -1.</_>
                <_>
                  7 13 2 4 2.</_></rects>
              <tilted>1</tilted></feature>
            <threshold>-9.9945031106472015e-003</threshold>
            <left_val>5.7832425832748413e-001</left_val>
            <right_val>-3.6624935269355774e-001</right_val></_></_>
        <_>
          <_>
            <feature>
              <rects>
                <_>
                  0 18 20 5 -1.</_>
                <_>
                  10 18 10 5 2.</_></rects>
              <tilted>0</tilted></feature>
            <threshold>-3.5694981925189495e-003</threshold>
            <left_val>3.2394379377365112e-001</left_val>
            <right_val>-6.4384084939956665e-001</right_val></_></_>
        <_>
          <_>
            <feature>
              <rects>
                <_>
                  5 16 4 3 -1.</_>
                <_>
                  6 16 2 3 2.</_></rects>
              <tilted>0</tilted></feature>
            <threshold>-3.5217492841184139e-003</threshold>
            <left_val>5.8614778518676758e-001</left_val>
            <right_val>-3.3573359251022339e-001</right_val></_></_>
        <_>
          <_>
            <feature>
              <rects>
                <_>
                  5 17 3 3 -1.</_>
                <_>
                  6 17 1 3 3.</_></rects>
              <tilted>0</tilted></feature>
            <threshold>3.7469849921762943e-003</threshold>
            <left_val>-3.3248767256736755e-001</left_val>
            <right_val>7.2089850902557373e-001</right_val></_></_></trees>
      <stage_threshold>-1.3740204572677612e+000</stage_threshold>
      <parent>4</parent>
      <next>-1</next></_>
    <_>
      <trees>
        <_>
          <_>
            <feature>
              <rects>
                <_>
                  15 15 4 6 -1.</_>
                <_>
                  15 15 2 3 2.</_>
                <_>
                  17 18 2 3 2.</_></rects>
              <tilted>0</tilted></feature>
            <threshold>7.4554975144565105e-003</threshold>
            <left_val>-7.4584835767745972e-001</left_val>
            <right_val>3.2048192620277405e-001</right_val></_></_>
        <_>
          <_>
            <feature>
              <rects>
                <_>
                  20 15 4 4 -1.</_>
                <_>
                  22 15 2 4 2.</_></rects>
              <tilted>0</tilted></feature>
            <threshold>9.9597470834851265e-003</threshold>
            <left_val>-5.3731149435043335e-001</left_val>
            <right_val>5.2743059396743774e-001</right_val></_></_>
        <_>
          <_>
            <feature>
              <rects>
                <_>
                  15 4 9 4 -1.</_>
                <_>
                  14 5 9 2 2.</_></rects>
              <tilted>1</tilted></feature>
            <threshold>1.2338669970631599e-002</threshold>
            <left_val>-3.9944767951965332e-001</left_val>
            <right_val>6.1624026298522949e-001</right_val></_></_>
        <_>
          <_>
            <feature>
              <rects>
                <_>
                  2 18 2 3 -1.</_>
                <_>
                  3 18 1 3 2.</_></rects>
              <tilted>0</tilted></feature>
            <threshold>-8.7623245781287551e-004</threshold>
            <left_val>3.8849315047264099e-001</left_val>
            <right_val>-5.2180284261703491e-001</right_val></_></_>
        <_>
          <_>
            <feature>
              <rects>
                <_>
                  7 16 16 4 -1.</_>
                <_>
                  7 16 8 2 2.</_>
                <_>
                  15 18 8 2 2.</_></rects>
              <tilted>0</tilted></feature>
            <threshold>4.7868103720247746e-003</threshold>
            <left_val>-5.0710618495941162e-001</left_val>
            <right_val>3.9242786169052124e-001</right_val></_></_>
        <_>
          <_>
            <feature>
              <rects>
                <_>
                  3 16 18 1 -1.</_>
                <_>
                  12 16 9 1 2.</_></rects>
              <tilted>0</tilted></feature>
            <threshold>-5.4428940638899803e-003</threshold>
            <left_val>-7.3579633235931396e-001</left_val>
            <right_val>2.4749517440795898e-001</right_val></_></_>
        <_>
          <_>
            <feature>
              <rects>
                <_>
                  6 16 3 4 -1.</_>
                <_>
                  7 16 1 4 3.</_></rects>
              <tilted>0</tilted></feature>
            <threshold>-6.8582668900489807e-003</threshold>
            <left_val>6.5613096952438354e-001</left_val>
            <right_val>-3.0147677659988403e-001</right_val></_></_>
        <_>
          <_>
            <feature>
              <rects>
                <_>
                  13 19 2 3 -1.</_>
                <_>
                  13 19 1 3 2.</_></rects>
              <tilted>1</tilted></feature>
            <threshold>-8.2978466525673866e-004</threshold>
            <left_val>2.9058790206909180e-001</left_val>
            <right_val>-7.2869396209716797e-001</right_val></_></_></trees>
      <stage_threshold>-1.5646142959594727e+000</stage_threshold>
      <parent>5</parent>
      <next>-1</next></_>
    <_>
      <trees>
        <_>
          <_>
            <feature>
              <rects>
                <_>
                  4 16 3 4 -1.</_>
                <_>
                  5 16 1 4 3.</_></rects>
              <tilted>0</tilted></feature>
            <threshold>1.0186366736888885e-002</threshold>
            <left_val>-6.5454542636871338e-001</left_val>
            <right_val>4.1538462042808533e-001</right_val></_></_>
        <_>
          <_>
            <feature>
              <rects>
                <_>
                  17 11 3 6 -1.</_>
                <_>
                  17 14 3 3 2.</_></rects>
              <tilted>0</tilted></feature>
            <threshold>-1.1230434291064739e-002</threshold>
            <left_val>3.4032377600669861e-001</left_val>
            <right_val>-5.9301936626434326e-001</right_val></_></_>
        <_>
          <_>
            <feature>
              <rects>
                <_>
                  0 15 12 8 -1.</_>
                <_>
                  3 15 6 8 2.</_></rects>
              <tilted>0</tilted></feature>
            <threshold>-8.9837042614817619e-003</threshold>
            <left_val>2.1732184290885925e-001</left_val>
            <right_val>-6.7125266790390015e-001</right_val></_></_>
        <_>
          <_>
            <feature>
              <rects>
                <_>
                  7 16 7 8 -1.</_>
                <_>
                  7 18 7 4 2.</_></rects>
              <tilted>0</tilted></feature>
            <threshold>-2.5995269417762756e-002</threshold>
            <left_val>3.3599513769149780e-001</left_val>
            <right_val>-4.8450163006782532e-001</right_val></_></_>
        <_>
          <_>
            <feature>
              <rects>
                <_>
                  19 19 4 5 -1.</_>
                <_>
                  21 19 2 5 2.</_></rects>
              <tilted>0</tilted></feature>
            <threshold>1.2887502089142799e-003</threshold>
            <left_val>-6.2747186422348022e-001</left_val>
            <right_val>2.2491408884525299e-001</right_val></_></_>
        <_>
          <_>
            <feature>
              <rects>
                <_>
                  3 7 16 10 -1.</_>
                <_>
                  3 12 16 5 2.</_></rects>
              <tilted>0</tilted></feature>
            <threshold>-1.2707976996898651e-001</threshold>
            <left_val>6.4758193492889404e-001</left_val>
            <right_val>-2.3548735678195953e-001</right_val></_></_>
        <_>
          <_>
            <feature>
              <rects>
                <_>
                  4 16 3 5 -1.</_>
                <_>
                  5 16 1 5 3.</_></rects>
              <tilted>0</tilted></feature>
            <threshold>-6.3553983345627785e-003</threshold>
            <left_val>7.1657758951187134e-001</left_val>
            <right_val>-2.0930755138397217e-001</right_val></_></_>
        <_>
          <_>
            <feature>
              <rects>
                <_>
                  2 23 9 1 -1.</_>
                <_>
                  5 23 3 1 3.</_></rects>
              <tilted>0</tilted></feature>
            <threshold>-3.0854789074510336e-003</threshold>
            <left_val>-8.1524449586868286e-001</left_val>
            <right_val>2.0231798291206360e-001</right_val></_></_>
        <_>
          <_>
            <feature>
              <rects>
                <_>
                  3 7 10 4 -1.</_>
                <_>
                  3 7 5 2 2.</_>
                <_>
                  8 9 5 2 2.</_></rects>
              <tilted>0</tilted></feature>
            <threshold>-6.5963687375187874e-003</threshold>
            <left_val>5.4066538810729980e-001</left_val>
            <right_val>-2.9093897342681885e-001</right_val></_></_></trees>
      <stage_threshold>-1.6057022809982300e+000</stage_threshold>
      <parent>6</parent>
      <next>-1</next></_>
    <_>
      <trees>
        <_>
          <_>
            <feature>
              <rects>
                <_>
                  6 13 3 3 -1.</_>
                <_>
                  7 14 1 3 3.</_></rects>
              <tilted>1</tilted></feature>
            <threshold>-1.3461888767778873e-002</threshold>
            <left_val>2.7096775174140930e-001</left_val>
            <right_val>-6.6040265560150146e-001</right_val></_></_>
        <_>
          <_>
            <feature>
              <rects>
                <_>
                  20 15 4 4 -1.</_>
                <_>
                  22 15 2 4 2.</_></rects>
              <tilted>0</tilted></feature>
            <threshold>1.3922329060733318e-002</threshold>
            <left_val>-3.9771401882171631e-001</left_val>
            <right_val>4.3923690915107727e-001</right_val></_></_>
        <_>
          <_>
            <feature>
              <rects>
                <_>
                  16 20 1 4 -1.</_>
                <_>
                  16 22 1 2 2.</_></rects>
              <tilted>0</tilted></feature>
            <threshold>1.9014612771570683e-003</threshold>
            <left_val>-6.0734879970550537e-001</left_val>
            <right_val>2.4211756885051727e-001</right_val></_></_>
        <_>
          <_>
            <feature>
              <rects>
                <_>
                  15 6 3 16 -1.</_>
                <_>
                  16 6 1 16 3.</_></rects>
              <tilted>0</tilted></feature>
            <threshold>-9.6339872106909752e-003</threshold>
            <left_val>5.7037240266799927e-001</left_val>
            <right_val>-2.6873081922531128e-001</right_val></_></_>
        <_>
          <_>
            <feature>
              <rects>
                <_>
                  10 14 2 6 -1.</_>
                <_>
                  10 14 1 3 2.</_>
                <_>
                  11 17 1 3 2.</_></rects>
              <tilted>0</tilted></feature>
            <threshold>-1.1694980785250664e-003</threshold>
            <left_val>-8.1190097332000732e-001</left_val>
            <right_val>2.5064802169799805e-001</right_val></_></_>
        <_>
          <_>
            <feature>
              <rects>
                <_>
                  1 4 19 12 -1.</_>
                <_>
                  1 10 19 6 2.</_></rects>
              <tilted>0</tilted></feature>
            <threshold>1.5840041637420654e-001</threshold>
            <left_val>-2.8110837936401367e-001</left_val>
            <right_val>6.6845446825027466e-001</right_val></_></_>
        <_>
          <_>
            <feature>
              <rects>
                <_>
                  9 12 4 10 -1.</_>
                <_>
                  9 12 2 5 2.</_>
                <_>
                  11 17 2 5 2.</_></rects>
              <tilted>0</tilted></feature>
            <threshold>4.7187358140945435e-003</threshold>
            <left_val>2.2368760406970978e-001</left_val>
            <right_val>-8.3669877052307129e-001</right_val></_></_>
        <_>
          <_>
            <feature>
              <rects>
                <_>
                  1 15 3 3 -1.</_>
                <_>
                  2 15 1 3 3.</_></rects>
              <tilted>0</tilted></feature>
            <threshold>-1.9412332912907004e-003</threshold>
            <left_val>4.5441025495529175e-001</left_val>
            <right_val>-3.6384776234626770e-001</right_val></_></_></trees>
      <stage_threshold>-1.3843663930892944e+000</stage_threshold>
      <parent>7</parent>
      <next>-1</next></_>
    <_>
      <trees>
        <_>
          <_>
            <feature>
              <rects>
                <_>
                  19 14 3 3 -1.</_>
                <_>
                  18 15 3 1 3.</_></rects>
              <tilted>1</tilted></feature>
            <threshold>-9.6644032746553421e-003</threshold>
            <left_val>2.3463687300682068e-001</left_val>
            <right_val>-6.8238556385040283e-001</right_val></_></_>
        <_>
          <_>
            <feature>
              <rects>
                <_>
                  17 17 3 2 -1.</_>
                <_>
                  18 17 1 2 3.</_></rects>
              <tilted>0</tilted></feature>
            <threshold>4.2521497234702110e-003</threshold>
            <left_val>-3.4744417667388916e-001</left_val>
            <right_val>6.2181341648101807e-001</right_val></_></_>
        <_>
          <_>
            <feature>
              <rects>
                <_>
                  3 23 8 1 -1.</_>
                <_>
                  5 23 4 1 2.</_></rects>
              <tilted>0</tilted></feature>
            <threshold>1.4435041230171919e-003</threshold>
            <left_val>2.5883924961090088e-001</left_val>
            <right_val>-7.4514698982238770e-001</right_val></_></_>
        <_>
          <_>
            <feature>
              <rects>
                <_>
                  5 14 4 6 -1.</_>
                <_>
                  5 14 2 3 2.</_>
                <_>
                  7 17 2 3 2.</_></rects>
              <tilted>0</tilted></feature>
            <threshold>-6.1993701383471489e-003</threshold>
            <left_val>4.1255506873130798e-001</left_val>
            <right_val>-3.9077672362327576e-001</right_val></_></_>
        <_>
          <_>
            <feature>
              <rects>
                <_>
                  4 17 20 5 -1.</_>
                <_>
                  14 17 10 5 2.</_></rects>
              <tilted>0</tilted></feature>
            <threshold>-1.4503767713904381e-002</threshold>
            <left_val>-7.8120315074920654e-001</left_val>
            <right_val>2.1492908895015717e-001</right_val></_></_>
        <_>
          <_>
            <feature>
              <rects>
                <_>
                  10 15 4 2 -1.</_>
                <_>
                  11 15 2 2 2.</_></rects>
              <tilted>0</tilted></feature>
            <threshold>-1.1363974772393703e-003</threshold>
            <left_val>-8.5570639371871948e-001</left_val>
            <right_val>1.6882236301898956e-001</right_val></_></_>
        <_>
          <_>
            <feature>
              <rects>
                <_>
                  17 13 3 8 -1.</_>
                <_>
                  18 13 1 8 3.</_></rects>
              <tilted>0</tilted></feature>
            <threshold>-6.0821906663477421e-003</threshold>
            <left_val>5.6389945745468140e-001</left_val>
            <right_val>-2.9667663574218750e-001</right_val></_></_>
        <_>
          <_>
            <feature>
              <rects>
                <_>
                  0 5 4 18 -1.</_>
                <_>
                  0 5 2 9 2.</_>
                <_>
                  2 14 2 9 2.</_></rects>
              <tilted>0</tilted></feature>
            <threshold>-1.6776844859123230e-002</threshold>
            <left_val>3.9571604132652283e-001</left_val>
            <right_val>-3.7178084254264832e-001</right_val></_></_>
        <_>
          <_>
            <feature>
              <rects>
                <_>
                  12 16 2 3 -1.</_>
                <_>
                  13 16 1 3 2.</_></rects>
              <tilted>0</tilted></feature>
            <threshold>-6.2181998509913683e-004</threshold>
            <left_val>-7.7261096239089966e-001</left_val>
            <right_val>1.7267279326915741e-001</right_val></_></_></trees>
      <stage_threshold>-1.5102897882461548e+000</stage_threshold>
      <parent>8</parent>
      <next>-1</next></_>
    <_>
      <trees>
        <_>
          <_>
            <feature>
              <rects>
                <_>
                  7 13 3 3 -1.</_>
                <_>
                  6 14 3 1 3.</_></rects>
              <tilted>1</tilted></feature>
            <threshold>-9.9518671631813049e-003</threshold>
            <left_val>2.0707070827484131e-001</left_val>
            <right_val>-6.9943022727966309e-001</right_val></_></_>
        <_>
          <_>
            <feature>
              <rects>
                <_>
                  4 17 3 3 -1.</_>
                <_>
                  5 17 1 3 3.</_></rects>
              <tilted>0</tilted></feature>
            <threshold>4.0627694688737392e-003</threshold>
            <left_val>-4.0358635783195496e-001</left_val>
            <right_val>4.4352352619171143e-001</right_val></_></_>
        <_>
          <_>
            <feature>
              <rects>
                <_>
                  5 16 3 3 -1.</_>
                <_>
                  6 16 1 3 3.</_></rects>
              <tilted>0</tilted></feature>
            <threshold>8.1983478739857674e-003</threshold>
            <left_val>-1.9183617830276489e-001</left_val>
            <right_val>7.0212477445602417e-001</right_val></_></_>
        <_>
          <_>
            <feature>
              <rects>
                <_>
                  8 15 16 8 -1.</_>
                <_>
                  12 15 8 8 2.</_></rects>
              <tilted>0</tilted></feature>
            <threshold>-1.7448294907808304e-002</threshold>
            <left_val>2.6235011219978333e-001</left_val>
            <right_val>-5.7155960798263550e-001</right_val></_></_>
        <_>
          <_>
            <feature>
              <rects>
                <_>
                  9 17 1 2 -1.</_>
                <_>
                  9 18 1 1 2.</_></rects>
              <tilted>0</tilted></feature>
            <threshold>-1.5203373550320975e-005</threshold>
            <left_val>2.8028327226638794e-001</left_val>
            <right_val>-4.3741032481193542e-001</right_val></_></_>
        <_>
          <_>
            <feature>
              <rects>
                <_>
                  12 15 2 4 -1.</_>
                <_>
                  12 15 1 2 2.</_>
                <_>
                  13 17 1 2 2.</_></rects>
              <tilted>0</tilted></feature>
            <threshold>7.9114665277302265e-004</threshold>
            <left_val>1.8000306189060211e-001</left_val>
            <right_val>-7.7886861562728882e-001</right_val></_></_>
        <_>
          <_>
            <feature>
              <rects>
                <_>
                  17 4 7 6 -1.</_>
                <_>
                  15 6 7 2 3.</_></rects>
              <tilted>1</tilted></feature>
            <threshold>4.3692346662282944e-002</threshold>
            <left_val>-2.4293695390224457e-001</left_val>
            <right_val>5.6095099449157715e-001</right_val></_></_>
        <_>
          <_>
            <feature>
              <rects>
                <_>
                  3 23 20 1 -1.</_>
                <_>
                  8 23 10 1 2.</_></rects>
              <tilted>0</tilted></feature>
            <threshold>-7.4480706825852394e-003</threshold>
            <left_val>-8.4215629100799561e-001</left_val>
            <right_val>1.6189324855804443e-001</right_val></_></_>
        <_>
          <_>
            <feature>
              <rects>
                <_>
                  17 17 2 3 -1.</_>
                <_>
                  17 18 2 1 3.</_></rects>
              <tilted>0</tilted></feature>
            <threshold>3.5697181010618806e-004</threshold>
            <left_val>-4.2597061395645142e-001</left_val>
            <right_val>2.7709135413169861e-001</right_val></_></_>
        <_>
          <_>
            <feature>
              <rects>
                <_>
                  2 11 6 12 -1.</_>
                <_>
                  2 15 6 4 3.</_></rects>
              <tilted>0</tilted></feature>
            <threshold>-1.1853532865643501e-002</threshold>
            <left_val>1.6629149019718170e-001</left_val>
            <right_val>-7.6544338464736938e-001</right_val></_></_></trees>
      <stage_threshold>-1.6306326389312744e+000</stage_threshold>
      <parent>9</parent>
      <next>-1</next></_>
    <_>
      <trees>
        <_>
          <_>
            <feature>
              <rects>
                <_>
                  16 14 2 6 -1.</_>
                <_>
                  16 14 1 3 2.</_>
                <_>
                  17 17 1 3 2.</_></rects>
              <tilted>0</tilted></feature>
            <threshold>5.6486800312995911e-003</threshold>
            <left_val>-6.7007499933242798e-001</left_val>
            <right_val>2.4924924969673157e-001</right_val></_></_>
        <_>
          <_>
            <feature>
              <rects>
                <_>
                  5 16 2 4 -1.</_>
                <_>
                  5 17 2 2 2.</_></rects>
              <tilted>0</tilted></feature>
            <threshold>1.5539279047516175e-005</threshold>
            <left_val>-5.8986788988113403e-001</left_val>
            <right_val>2.1933408081531525e-001</right_val></_></_>
        <_>
          <_>
            <feature>
              <rects>
                <_>
                  16 16 3 6 -1.</_>
                <_>
                  17 16 1 6 3.</_></rects>
              <tilted>0</tilted></feature>
            <threshold>-7.5644822791218758e-003</threshold>
            <left_val>6.7172610759735107e-001</left_val>
            <right_val>-2.2751799225807190e-001</right_val></_></_>
        <_>
          <_>
            <feature>
              <rects>
                <_>
                  10 13 4 10 -1.</_>
                <_>
                  10 13 2 5 2.</_>
                <_>
                  12 18 2 5 2.</_></rects>
              <tilted>0</tilted></feature>
            <threshold>-6.7422697320580482e-003</threshold>
            <left_val>-8.5865509510040283e-001</left_val>
            <right_val>1.7608357965946198e-001</right_val></_></_>
        <_>
          <_>
            <feature>
              <rects>
                <_>
                  10 20 4 4 -1.</_>
                <_>
                  12 20 2 4 2.</_></rects>
              <tilted>0</tilted></feature>
            <threshold>1.8264986574649811e-003</threshold>
            <left_val>2.1082414686679840e-001</left_val>
            <right_val>-7.6467627286911011e-001</right_val></_></_>
        <_>
          <_>
            <feature>
              <rects>
                <_>
                  2 19 10 5 -1.</_>
                <_>
                  7 19 5 5 2.</_></rects>
              <tilted>0</tilted></feature>
            <threshold>7.4548884294927120e-003</threshold>
            <left_val>1.2250294536352158e-001</left_val>
            <right_val>-7.8255450725555420e-001</right_val></_></_>
        <_>
          <_>
            <feature>
              <rects>
                <_>
                  0 18 4 3 -1.</_>
                <_>
                  2 18 2 3 2.</_></rects>
              <tilted>0</tilted></feature>
            <threshold>-2.1631568670272827e-003</threshold>
            <left_val>1.9348539412021637e-001</left_val>
            <right_val>-6.6491532325744629e-001</right_val></_></_>
        <_>
          <_>
            <feature>
              <rects>
                <_>
                  4 20 16 2 -1.</_>
                <_>
                  4 21 16 1 2.</_></rects>
              <tilted>0</tilted></feature>
            <threshold>-5.3445599041879177e-003</threshold>
            <left_val>6.3835352659225464e-001</left_val>
            <right_val>-2.2677533328533173e-001</right_val></_></_></trees>
      <stage_threshold>-1.2368768453598022e+000</stage_threshold>
      <parent>10</parent>
      <next>-1</next></_>
    <_>
      <trees>
        <_>
          <_>
            <feature>
              <rects>
                <_>
                  18 14 2 6 -1.</_>
                <_>
                  18 14 1 3 2.</_>
                <_>
                  19 17 1 3 2.</_></rects>
              <tilted>0</tilted></feature>
            <threshold>-6.1053531244397163e-003</threshold>
            <left_val>2.7797833085060120e-001</left_val>
            <right_val>-6.4149701595306396e-001</right_val></_></_>
        <_>
          <_>
            <feature>
              <rects>
                <_>
                  5 19 1 2 -1.</_>
                <_>
                  5 20 1 1 2.</_></rects>
              <tilted>0</tilted></feature>
            <threshold>-2.1393608767539263e-004</threshold>
            <left_val>2.8907099366188049e-001</left_val>
            <right_val>-4.2729803919792175e-001</right_val></_></_>
        <_>
          <_>
            <feature>
              <rects>
                <_>
                  4 12 6 12 -1.</_>
                <_>
                  4 16 6 4 3.</_></rects>
              <tilted>0</tilted></feature>
            <threshold>-2.4603709578514099e-002</threshold>
            <left_val>1.4868292212486267e-001</left_val>
            <right_val>-7.5055199861526489e-001</right_val></_></_>
        <_>
          <_>
            <feature>
              <rects>
                <_>
                  5 15 2 2 -1.</_>
                <_>
                  5 16 2 1 2.</_></rects>
              <tilted>0</tilted></feature>
            <threshold>5.4728006944060326e-004</threshold>
            <left_val>-2.8474178910255432e-001</left_val>
            <right_val>4.2155450582504272e-001</right_val></_></_>
        <_>
          <_>
            <feature>
              <rects>
                <_>
                  10 17 2 2 -1.</_>
                <_>
                  11 17 1 2 2.</_></rects>
              <tilted>0</tilted></feature>
            <threshold>6.8628508597612381e-004</threshold>
            <left_val>1.7469044029712677e-001</left_val>
            <right_val>-7.6051634550094604e-001</right_val></_></_>
        <_>
          <_>
            <feature>
              <rects>
                <_>
                  16 17 3 3 -1.</_>
                <_>
                  17 17 1 3 3.</_></rects>
              <tilted>0</tilted></feature>
            <threshold>5.4653007537126541e-003</threshold>
            <left_val>-2.3216217756271362e-001</left_val>
            <right_val>5.6341850757598877e-001</right_val></_></_>
        <_>
          <_>
            <feature>
              <rects>
                <_>
                  15 17 4 2 -1.</_>
                <_>
                  16 17 2 2 2.</_></rects>
              <tilted>0</tilted></feature>
            <threshold>-2.0116306841373444e-003</threshold>
            <left_val>5.4197925329208374e-001</left_val>
            <right_val>-3.1167563796043396e-001</right_val></_></_>
        <_>
          <_>
            <feature>
              <rects>
                <_>
                  21 18 2 5 -1.</_>
                <_>
                  22 18 1 5 2.</_></rects>
              <tilted>0</tilted></feature>
            <threshold>3.4942023921757936e-004</threshold>
            <left_val>-5.8811753988265991e-001</left_val>
            <right_val>2.1934607625007629e-001</right_val></_></_>
        <_>
          <_>
            <feature>
              <rects>
                <_>
                  17 16 3 2 -1.</_>
                <_>
                  18 16 1 2 3.</_></rects>
              <tilted>0</tilted></feature>
            <threshold>-3.3868844620883465e-003</threshold>
            <left_val>5.7331126928329468e-001</left_val>
            <right_val>-2.3555065691471100e-001</right_val></_></_>
        <_>
          <_>
            <feature>
              <rects>
                <_>
                  9 16 4 3 -1.</_>
                <_>
                  11 16 2 3 2.</_></rects>
              <tilted>0</tilted></feature>
            <threshold>-2.3918389342725277e-003</threshold>
            <left_val>-7.6177227497100830e-001</left_val>
            <right_val>1.8212760984897614e-001</right_val></_></_>
        <_>
          <_>
            <feature>
              <rects>
                <_>
                  17 11 3 6 -1.</_>
                <_>
                  17 11 3 3 2.</_></rects>
              <tilted>1</tilted></feature>
            <threshold>4.3210824951529503e-003</threshold>
            <left_val>-6.1784458160400391e-001</left_val>
            <right_val>1.6038981080055237e-001</right_val></_></_></trees>
      <stage_threshold>-1.4665262699127197e+000</stage_threshold>
      <parent>11</parent>
      <next>-1</next></_></stages></data>
</opencv_storage>
