<?xml version="1.0"?>
<opencv_storage>
<data type_id="opencv-haar-classifier">
  <size>
    24 24</size>
  <stages>
    <_>
      <trees>
        <_>
          <_>
            <feature>
              <rects>
                <_>
                  12 0 1 8 -1.</_>
                <_>
                  12 4 1 4 2.</_></rects>
              <tilted>0</tilted></feature>
            <threshold>-2.0180494175292552e-005</threshold>
            <left_val>7.9681274900400903e-004</left_val>
            <right_val>-8.2313624678660691e-001</right_val></_></_>
        <_>
          <_>
            <feature>
              <rects>
                <_>
                  4 7 19 16 -1.</_>
                <_>
                  4 15 19 8 2.</_></rects>
              <tilted>0</tilted></feature>
            <threshold>-2.4542985484004021e-003</threshold>
            <left_val>2.9881270026663120e-001</left_val>
            <right_val>-6.5541537620579027e-001</right_val></_></_>
        <_>
          <_>
            <feature>
              <rects>
                <_>
                  0 21 2 1 -1.</_>
                <_>
                  1 21 1 1 2.</_></rects>
              <tilted>0</tilted></feature>
            <threshold>-1.2055042134306859e-005</threshold>
            <left_val>4.5084197638660817e-001</left_val>
            <right_val>-4.2543893419327256e-001</right_val></_></_>
        <_>
          <_>
            <feature>
              <rects>
                <_>
                  22 20 2 1 -1.</_>
                <_>
                  23 20 1 1 2.</_></rects>
              <tilted>0</tilted></feature>
            <threshold>1.0926568393188063e-005</threshold>
            <left_val>-3.3938760119846112e-001</left_val>
            <right_val>4.1614098156705298e-001</right_val></_></_>
        <_>
          <_>
            <feature>
              <rects>
                <_>
                  1 0 22 24 -1.</_>
                <_>
                  1 12 22 12 2.</_></rects>
              <tilted>0</tilted></feature>
            <threshold>4.1597625613212585e-001</threshold>
            <left_val>1.4186993887289448e-001</left_val>
            <right_val>-7.6260438755236382e-001</right_val></_></_>
        <_>
          <_>
            <feature>
              <rects>
                <_>
                  16 23 2 1 -1.</_>
                <_>
                  17 23 1 1 2.</_></rects>
              <tilted>0</tilted></feature>
            <threshold>1.2183209037175402e-005</threshold>
            <left_val>-2.3269577158751559e-001</left_val>
            <right_val>3.9534331996176514e-001</right_val></_></_>
        <_>
          <_>
            <feature>
              <rects>
                <_>
                  0 4 15 17 -1.</_>
                <_>
                  5 4 5 17 3.</_></rects>
              <tilted>0</tilted></feature>
            <threshold>-7.4574291706085205e-002</threshold>
            <left_val>5.1253505470697869e-001</left_val>
            <right_val>-1.4494295901444071e-001</right_val></_></_>
        <_>
          <_>
            <feature>
              <rects>
                <_>
                  0 8 4 13 -1.</_>
                <_>
                  2 8 2 13 2.</_></rects>
              <tilted>0</tilted></feature>
            <threshold>1.5300221741199493e-002</threshold>
            <left_val>-1.5923747453612458e-001</left_val>
            <right_val>5.4347991872658841e-001</right_val></_></_>
        <_>
          <_>
            <feature>
              <rects>
                <_>
                  11 0 7 10 -1.</_>
                <_>
                  11 5 7 5 2.</_></rects>
              <tilted>0</tilted></feature>
            <threshold>2.9939755797386169e-002</threshold>
            <left_val>1.6394417749317874e-001</left_val>
            <right_val>-5.0945112489751554e-001</right_val></_></_>
        <_>
          <_>
            <feature>
              <rects>
                <_>
                  20 6 4 14 -1.</_>
                <_>
                  20 6 2 7 2.</_>
                <_>
                  22 13 2 7 2.</_></rects>
              <tilted>0</tilted></feature>
            <threshold>1.2594329193234444e-002</threshold>
            <left_val>-1.7241157707322596e-001</left_val>
            <right_val>4.6769394793515451e-001</right_val></_></_>
        <_>
          <_>
            <feature>
              <rects>
                <_>
                  4 16 1 2 -1.</_>
                <_>
                  4 17 1 1 2.</_></rects>
              <tilted>0</tilted></feature>
            <threshold>-1.2697296369879041e-005</threshold>
            <left_val>3.2835968565654289e-001</left_val>
            <right_val>-2.3387942452650654e-001</right_val></_></_></trees>
      <stage_threshold>-1.7186464071273804e+000</stage_threshold>
      <parent>-1</parent>
      <next>-1</next></_>
    <_>
      <trees>
        <_>
          <_>
            <feature>
              <rects>
                <_>
                  6 0 13 4 -1.</_>
                <_>
                  6 1 13 2 2.</_></rects>
              <tilted>0</tilted></feature>
            <threshold>2.3172317072749138e-002</threshold>
            <left_val>-6.1118980169967818e-001</left_val>
            <right_val>3.3510638297872680e-001</right_val></_></_>
        <_>
          <_>
            <feature>
              <rects>
                <_>
                  22 19 2 1 -1.</_>
                <_>
                  23 19 1 1 2.</_></rects>
              <tilted>0</tilted></feature>
            <threshold>1.0926568393188063e-005</threshold>
            <left_val>-4.1912266994327313e-001</left_val>
            <right_val>2.5949211385083987e-001</right_val></_></_>
        <_>
          <_>
            <feature>
              <rects>
                <_>
                  0 22 2 1 -1.</_>
                <_>
                  1 22 1 1 2.</_></rects>
              <tilted>0</tilted></feature>
            <threshold>-1.2531482752820011e-005</threshold>
            <left_val>3.0256225344541360e-001</left_val>
            <right_val>-3.3598517606862721e-001</right_val></_></_>
        <_>
          <_>
            <feature>
              <rects>
                <_>
                  11 8 1 2 -1.</_>
                <_>
                  11 9 1 1 2.</_></rects>
              <tilted>0</tilted></feature>
            <threshold>1.2916529158246703e-005</threshold>
            <left_val>-2.5772267438151925e-001</left_val>
            <right_val>2.7395110791184468e-001</right_val></_></_>
        <_>
          <_>
            <feature>
              <rects>
                <_>
                  21 11 3 4 -1.</_>
                <_>
                  22 11 1 4 3.</_></rects>
              <tilted>0</tilted></feature>
            <threshold>-5.2849976345896721e-003</threshold>
            <left_val>6.2789021299388714e-001</left_val>
            <right_val>-1.0060204419382450e-001</right_val></_></_>
        <_>
          <_>
            <feature>
              <rects>
                <_>
                  20 7 4 4 -1.</_>
                <_>
                  21 7 2 4 2.</_></rects>
              <tilted>0</tilted></feature>
            <threshold>4.5169000513851643e-003</threshold>
            <left_val>-1.1745724941976773e-001</left_val>
            <right_val>5.1369272362333041e-001</right_val></_></_>
        <_>
          <_>
            <feature>
              <rects>
                <_>
                  0 8 3 11 -1.</_>
                <_>
                  1 8 1 11 3.</_></rects>
              <tilted>0</tilted></feature>
            <threshold>-8.6427191272377968e-003</threshold>
            <left_val>5.7439594367332392e-001</left_val>
            <right_val>-4.7180833792354271e-002</right_val></_></_>
        <_>
          <_>
            <feature>
              <rects>
                <_>
                  23 20 1 4 -1.</_>
                <_>
                  23 22 1 2 2.</_></rects>
              <tilted>0</tilted></feature>
            <threshold>-1.2708058347925544e-003</threshold>
            <left_val>-4.3038434857093683e-001</left_val>
            <right_val>1.2841218863187145e-001</right_val></_></_>
        <_>
          <_>
            <feature>
              <rects>
                <_>
                  11 1 3 3 -1.</_>
                <_>
                  11 2 3 1 3.</_></rects>
              <tilted>0</tilted></feature>
            <threshold>-3.8653756491839886e-003</threshold>
            <left_val>5.1770663092329183e-001</left_val>
            <right_val>-1.2950888597254098e-001</right_val></_></_>
        <_>
          <_>
            <feature>
              <rects>
                <_>
                  21 2 2 3 -1.</_>
                <_>
                  20 3 2 1 3.</_></rects>
              <tilted>1</tilted></feature>
            <threshold>8.9268255978822708e-003</threshold>
            <left_val>-2.9294312562705125e-002</left_val>
            <right_val>7.3294525414918754e-001</right_val></_></_>
        <_>
          <_>
            <feature>
              <rects>
                <_>
                  6 13 13 6 -1.</_>
                <_>
                  6 16 13 3 2.</_></rects>
              <tilted>0</tilted></feature>
            <threshold>-1.6513909213244915e-003</threshold>
            <left_val>1.7581360086267420e-001</left_val>
            <right_val>-2.9651408696100656e-001</right_val></_></_>
        <_>
          <_>
            <feature>
              <rects>
                <_>
                  12 2 1 4 -1.</_>
                <_>
                  12 3 1 2 2.</_></rects>
              <tilted>0</tilted></feature>
            <threshold>-1.2168209650553763e-005</threshold>
            <left_val>1.9316224517600308e-001</left_val>
            <right_val>-2.4428980839283201e-001</right_val></_></_>
        <_>
          <_>
            <feature>
              <rects>
                <_>
                  23 13 1 4 -1.</_>
                <_>
                  23 15 1 2 2.</_></rects>
              <tilted>0</tilted></feature>
            <threshold>-1.8871070351451635e-003</threshold>
            <left_val>-4.1349000043345224e-001</left_val>
            <right_val>1.2423583689367794e-001</right_val></_></_>
        <_>
          <_>
            <feature>
              <rects>
                <_>
                  22 2 2 16 -1.</_>
                <_>
                  22 2 1 8 2.</_>
                <_>
                  23 10 1 8 2.</_></rects>
              <tilted>0</tilted></feature>
            <threshold>-1.1304587125778198e-002</threshold>
            <left_val>6.8123253735921774e-001</left_val>
            <right_val>-7.4624678539929074e-002</right_val></_></_>
        <_>
          <_>
            <feature>
              <rects>
                <_>
                  21 21 2 1 -1.</_>
                <_>
                  22 21 1 1 2.</_></rects>
              <tilted>0</tilted></feature>
            <threshold>1.0926568393188063e-005</threshold>
            <left_val>-2.0375133466151207e-001</left_val>
            <right_val>2.2725265421150062e-001</right_val></_></_>
        <_>
          <_>
            <feature>
              <rects>
                <_>
                  10 20 3 4 -1.</_>
                <_>
                  11 20 1 4 3.</_></rects>
              <tilted>0</tilted></feature>
            <threshold>8.4512191824615002e-004</threshold>
            <left_val>1.2008420896052480e-001</left_val>
            <right_val>-4.1010812149904413e-001</right_val></_></_>
        <_>
          <_>
            <feature>
              <rects>
                <_>
                  18 22 2 2 -1.</_>
                <_>
                  18 22 1 1 2.</_>
                <_>
                  19 23 1 1 2.</_></rects>
              <tilted>0</tilted></feature>
            <threshold>1.2183209037175402e-005</threshold>
            <left_val>-1.8219114667522576e-001</left_val>
            <right_val>2.3640593135876539e-001</right_val></_></_>
        <_>
          <_>
            <feature>
              <rects>
                <_>
                  2 23 2 1 -1.</_>
                <_>
                  3 23 1 1 2.</_></rects>
              <tilted>0</tilted></feature>
            <threshold>-1.3383868463279214e-005</threshold>
            <left_val>2.3608894903052779e-001</left_val>
            <right_val>-1.8741395465407407e-001</right_val></_></_>
        <_>
          <_>
            <feature>
              <rects>
                <_>
                  20 15 3 3 -1.</_>
                <_>
                  21 16 1 3 3.</_></rects>
              <tilted>1</tilted></feature>
            <threshold>9.5341226551681757e-004</threshold>
            <left_val>1.3321112837492774e-001</left_val>
            <right_val>-3.0887050441693537e-001</right_val></_></_>
        <_>
          <_>
            <feature>
              <rects>
                <_>
                  23 5 1 2 -1.</_>
                <_>
                  23 6 1 1 2.</_></rects>
              <tilted>0</tilted></feature>
            <threshold>1.3020070582570042e-005</threshold>
            <left_val>-1.8313033167296436e-001</left_val>
            <right_val>2.2873299133641486e-001</right_val></_></_>
        <_>
          <_>
            <feature>
              <rects>
                <_>
                  0 18 3 1 -1.</_>
                <_>
                  1 18 1 1 3.</_></rects>
              <tilted>0</tilted></feature>
            <threshold>-1.3924506674811710e-005</threshold>
            <left_val>2.1176491753393262e-001</left_val>
            <right_val>-2.1391355634368223e-001</right_val></_></_>
        <_>
          <_>
            <feature>
              <rects>
                <_>
                  14 1 2 8 -1.</_>
                <_>
                  14 5 2 4 2.</_></rects>
              <tilted>0</tilted></feature>
            <threshold>8.8845286518335342e-003</threshold>
            <left_val>8.9848790441265092e-002</left_val>
            <right_val>-5.6735279437339248e-001</right_val></_></_>
        <_>
          <_>
            <feature>
              <rects>
                <_>
                  0 2 24 22 -1.</_>
                <_>
                  0 13 24 11 2.</_></rects>
              <tilted>0</tilted></feature>
            <threshold>-6.2148594856262207e-001</threshold>
            <left_val>-8.0582030459928211e-001</left_val>
            <right_val>4.1205283980453054e-002</right_val></_></_>
        <_>
          <_>
            <feature>
              <rects>
                <_>
                  20 5 4 8 -1.</_>
                <_>
                  21 6 2 8 2.</_></rects>
              <tilted>1</tilted></feature>
            <threshold>1.8639704212546349e-002</threshold>
            <left_val>-8.6754815767014118e-002</left_val>
            <right_val>5.1924981998788411e-001</right_val></_></_>
        <_>
          <_>
            <feature>
              <rects>
                <_>
                  11 23 4 1 -1.</_>
                <_>
                  12 23 2 1 2.</_></rects>
              <tilted>0</tilted></feature>
            <threshold>4.2398215737193823e-004</threshold>
            <left_val>1.1280190612638663e-001</left_val>
            <right_val>-3.8863696999480440e-001</right_val></_></_></trees>
      <stage_threshold>-1.8736361265182495e+000</stage_threshold>
      <parent>0</parent>
      <next>-1</next></_>
    <_>
      <trees>
        <_>
          <_>
            <feature>
              <rects>
                <_>
                  7 0 11 3 -1.</_>
                <_>
                  7 1 11 1 3.</_></rects>
              <tilted>0</tilted></feature>
            <threshold>6.1995158903300762e-003</threshold>
            <left_val>-6.8258743888676610e-001</left_val>
            <right_val>3.9741219963031910e-001</right_val></_></_>
        <_>
          <_>
            <feature>
              <rects>
                <_>
                  11 0 8 3 -1.</_>
                <_>
                  11 1 8 1 3.</_></rects>
              <tilted>0</tilted></feature>
            <threshold>-3.7788706831634045e-003</threshold>
            <left_val>6.1070792435030508e-001</left_val>
            <right_val>-3.1013465432382920e-001</right_val></_></_>
        <_>
          <_>
            <feature>
              <rects>
                <_>
                  0 13 3 10 -1.</_>
                <_>
                  1 13 1 10 3.</_></rects>
              <tilted>0</tilted></feature>
            <threshold>-2.9304001946002245e-003</threshold>
            <left_val>5.5775638121313975e-001</left_val>
            <right_val>-2.3765983839955293e-001</right_val></_></_>
        <_>
          <_>
            <feature>
              <rects>
                <_>
                  3 20 16 4 -1.</_>
                <_>
                  3 21 16 2 2.</_></rects>
              <tilted>0</tilted></feature>
            <threshold>-3.4885476343333721e-003</threshold>
            <left_val>4.8878378501923953e-001</left_val>
            <right_val>-2.7405683129023761e-001</right_val></_></_>
        <_>
          <_>
            <feature>
              <rects>
                <_>
                  16 7 6 4 -1.</_>
                <_>
                  16 7 3 2 2.</_>
                <_>
                  19 9 3 2 2.</_></rects>
              <tilted>0</tilted></feature>
            <threshold>-3.4110723063349724e-003</threshold>
            <left_val>5.5435910048415071e-001</left_val>
            <right_val>-2.0060295120450156e-001</right_val></_></_>
        <_>
          <_>
            <feature>
              <rects>
                <_>
                  21 11 3 5 -1.</_>
                <_>
                  22 11 1 5 3.</_></rects>
              <tilted>0</tilted></feature>
            <threshold>-2.2653697524219751e-003</threshold>
            <left_val>6.1995400933551237e-001</left_val>
            <right_val>-1.6431436924021017e-001</right_val></_></_>
        <_>
          <_>
            <feature>
              <rects>
                <_>
                  4 0 16 2 -1.</_>
                <_>
                  4 1 16 1 2.</_></rects>
              <tilted>0</tilted></feature>
            <threshold>8.2851052284240723e-003</threshold>
            <left_val>-1.5368112115281718e-001</left_val>
            <right_val>6.2321993081154792e-001</right_val></_></_>
        <_>
          <_>
            <feature>
              <rects>
                <_>
                  19 6 3 3 -1.</_>
                <_>
                  20 6 1 3 3.</_></rects>
              <tilted>0</tilted></feature>
            <threshold>-1.3145304983481765e-003</threshold>
            <left_val>5.6103437983239979e-001</left_val>
            <right_val>-1.6783894523525233e-001</right_val></_></_>
        <_>
          <_>
            <feature>
              <rects>
                <_>
                  4 4 6 2 -1.</_>
                <_>
                  6 4 2 2 3.</_></rects>
              <tilted>0</tilted></feature>
            <threshold>-2.4308594875037670e-003</threshold>
            <left_val>4.7248443475775043e-001</left_val>
            <right_val>-1.9278983569462319e-001</right_val></_></_>
        <_>
          <_>
            <feature>
              <rects>
                <_>
                  17 4 3 12 -1.</_>
                <_>
                  18 4 1 12 3.</_></rects>
              <tilted>0</tilted></feature>
            <threshold>-1.9724098965525627e-003</threshold>
            <left_val>4.0953960764598762e-001</left_val>
            <right_val>-1.9378010554169714e-001</right_val></_></_>
        <_>
          <_>
            <feature>
              <rects>
                <_>
                  14 13 2 3 -1.</_>
                <_>
                  14 14 2 1 3.</_></rects>
              <tilted>0</tilted></feature>
            <threshold>-9.8673044703900814e-004</threshold>
            <left_val>5.8270813914181274e-001</left_val>
            <right_val>-1.0732315532036188e-001</right_val></_></_>
        <_>
          <_>
            <feature>
              <rects>
                <_>
                  3 4 3 2 -1.</_>
                <_>
                  4 4 1 2 3.</_></rects>
              <tilted>0</tilted></feature>
            <threshold>-6.3132896320894361e-004</threshold>
            <left_val>4.4542343969353743e-001</left_val>
            <right_val>-1.6953235899444177e-001</right_val></_></_></trees>
      <stage_threshold>-2.0588853359222412e+000</stage_threshold>
      <parent>1</parent>
      <next>-1</next></_>
    <_>
      <trees>
        <_>
          <_>
            <feature>
              <rects>
                <_>
                  4 0 15 4 -1.</_>
                <_>
                  4 1 15 2 2.</_></rects>
              <tilted>0</tilted></feature>
            <threshold>1.1383811011910439e-002</threshold>
            <left_val>-6.7413931144912287e-001</left_val>
            <right_val>1.1965811965812150e-001</right_val></_></_>
        <_>
          <_>
            <feature>
              <rects>
                <_>
                  10 5 6 6 -1.</_>
                <_>
                  10 7 6 2 3.</_></rects>
              <tilted>0</tilted></feature>
            <threshold>-5.5930037051439285e-003</threshold>
            <left_val>3.1161348919202692e-001</left_val>
            <right_val>-3.5810737811645615e-001</right_val></_></_>
        <_>
          <_>
            <feature>
              <rects>
                <_>
                  22 7 2 14 -1.</_>
                <_>
                  22 7 1 7 2.</_>
                <_>
                  23 14 1 7 2.</_></rects>
              <tilted>0</tilted></feature>
            <threshold>4.9317236989736557e-003</threshold>
            <left_val>-1.8626971141986934e-001</left_val>
            <right_val>5.2383162536533290e-001</right_val></_></_>
        <_>
          <_>
            <feature>
              <rects>
                <_>
                  11 1 7 3 -1.</_>
                <_>
                  11 2 7 1 3.</_></rects>
              <tilted>0</tilted></feature>
            <threshold>-3.0054550152271986e-003</threshold>
            <left_val>4.8330861288019644e-001</left_val>
            <right_val>-1.8402730235607265e-001</right_val></_></_>
        <_>
          <_>
            <feature>
              <rects>
                <_>
                  6 1 5 9 -1.</_>
                <_>
                  6 4 5 3 3.</_></rects>
              <tilted>0</tilted></feature>
            <threshold>-7.5868051499128342e-003</threshold>
            <left_val>3.2331595578145766e-001</left_val>
            <right_val>-2.5221431910471648e-001</right_val></_></_>
        <_>
          <_>
            <feature>
              <rects>
                <_>
                  22 10 2 6 -1.</_>
                <_>
                  22 10 1 3 2.</_>
                <_>
                  23 13 1 3 2.</_></rects>
              <tilted>0</tilted></feature>
            <threshold>-2.1950216032564640e-003</threshold>
            <left_val>5.8326951735141708e-001</left_val>
            <right_val>-1.3041156811919732e-001</right_val></_></_>
        <_>
          <_>
            <feature>
              <rects>
                <_>
                  1 10 16 12 -1.</_>
                <_>
                  1 16 16 6 2.</_></rects>
              <tilted>0</tilted></feature>
            <threshold>-6.1753578484058380e-002</threshold>
            <left_val>3.1307202957902219e-001</left_val>
            <right_val>-2.5916487115641307e-001</right_val></_></_>
        <_>
          <_>
            <feature>
              <rects>
                <_>
                  9 21 1 3 -1.</_>
                <_>
                  9 22 1 1 3.</_></rects>
              <tilted>0</tilted></feature>
            <threshold>-1.1314778021187522e-005</threshold>
            <left_val>3.1348239161110891e-001</left_val>
            <right_val>-2.0207093050852218e-001</right_val></_></_>
        <_>
          <_>
            <feature>
              <rects>
                <_>
                  0 12 2 10 -1.</_>
                <_>
                  0 12 1 5 2.</_>
                <_>
                  1 17 1 5 2.</_></rects>
              <tilted>0</tilted></feature>
            <threshold>-4.0066633373498917e-003</threshold>
            <left_val>4.6325542024491911e-001</left_val>
            <right_val>-1.5211371966756318e-001</right_val></_></_>
        <_>
          <_>
            <feature>
              <rects>
                <_>
                  2 6 12 9 -1.</_>
                <_>
                  6 9 4 3 9.</_></rects>
              <tilted>0</tilted></feature>
            <threshold>-1.9188962876796722e-002</threshold>
            <left_val>2.9987286712377798e-001</left_val>
            <right_val>-2.1596983086265870e-001</right_val></_></_>
        <_>
          <_>
            <feature>
              <rects>
                <_>
                  19 22 2 2 -1.</_>
                <_>
                  19 22 1 1 2.</_>
                <_>
                  20 23 1 1 2.</_></rects>
              <tilted>0</tilted></feature>
            <threshold>2.2490603441838175e-005</threshold>
            <left_val>-1.9338249536848029e-001</left_val>
            <right_val>3.1381577120644505e-001</right_val></_></_>
        <_>
          <_>
            <feature>
              <rects>
                <_>
                  9 3 15 18 -1.</_>
                <_>
                  14 3 5 18 3.</_></rects>
              <tilted>0</tilted></feature>
            <threshold>-5.5077549070119858e-002</threshold>
            <left_val>3.1889068135252441e-001</left_val>
            <right_val>-1.9226082658179602e-001</right_val></_></_>
        <_>
          <_>
            <feature>
              <rects>
                <_>
                  20 16 1 2 -1.</_>
                <_>
                  20 17 1 1 2.</_></rects>
              <tilted>0</tilted></feature>
            <threshold>-1.1314778021187522e-005</threshold>
            <left_val>2.4188256226084534e-001</left_val>
            <right_val>-2.4021520755009060e-001</right_val></_></_>
        <_>
          <_>
            <feature>
              <rects>
                <_>
                  20 8 2 15 -1.</_>
                <_>
                  20 13 2 5 3.</_></rects>
              <tilted>0</tilted></feature>
            <threshold>-4.3748290045186877e-004</threshold>
            <left_val>2.3894564451274422e-001</left_val>
            <right_val>-2.6507666978943384e-001</right_val></_></_>
        <_>
          <_>
            <feature>
              <rects>
                <_>
                  14 5 6 8 -1.</_>
                <_>
                  16 7 2 8 3.</_></rects>
              <tilted>1</tilted></feature>
            <threshold>-2.7680311352014542e-002</threshold>
            <left_val>5.2611008822744965e-001</left_val>
            <right_val>-1.2181589654279784e-001</right_val></_></_>
        <_>
          <_>
            <feature>
              <rects>
                <_>
                  11 8 2 1 -1.</_>
                <_>
                  12 8 1 1 2.</_></rects>
              <tilted>0</tilted></feature>
            <threshold>1.0926568393188063e-005</threshold>
            <left_val>-2.1628225757640474e-001</left_val>
            <right_val>2.8287276904200725e-001</right_val></_></_>
        <_>
          <_>
            <feature>
              <rects>
                <_>
                  19 20 1 4 -1.</_>
                <_>
                  19 21 1 2 2.</_></rects>
              <tilted>0</tilted></feature>
            <threshold>-1.1314778021187522e-005</threshold>
            <left_val>2.6127209140947322e-001</left_val>
            <right_val>-2.4025217980386152e-001</right_val></_></_>
        <_>
          <_>
            <feature>
              <rects>
                <_>
                  19 3 5 3 -1.</_>
                <_>
                  18 4 5 1 3.</_></rects>
              <tilted>1</tilted></feature>
            <threshold>-6.3523938879370689e-003</threshold>
            <left_val>4.6372145547416971e-001</left_val>
            <right_val>-1.2191594903046597e-001</right_val></_></_>
        <_>
          <_>
            <feature>
              <rects>
                <_>
                  0 0 2 18 -1.</_>
                <_>
                  0 0 1 9 2.</_>
                <_>
                  1 9 1 9 2.</_></rects>
              <tilted>0</tilted></feature>
            <threshold>-8.0788424238562584e-003</threshold>
            <left_val>5.1847427872043617e-001</left_val>
            <right_val>-9.8677272059059989e-002</right_val></_></_>
        <_>
          <_>
            <feature>
              <rects>
                <_>
                  19 18 2 4 -1.</_>
                <_>
                  19 19 2 2 2.</_></rects>
              <tilted>0</tilted></feature>
            <threshold>-1.1314778021187522e-005</threshold>
            <left_val>2.3964624242643118e-001</left_val>
            <right_val>-2.4357449873858292e-001</right_val></_></_></trees>
      <stage_threshold>-1.8515756130218506e+000</stage_threshold>
      <parent>2</parent>
      <next>-1</next></_>
    <_>
      <trees>
        <_>
          <_>
            <feature>
              <rects>
                <_>
                  9 4 6 20 -1.</_>
                <_>
                  9 9 6 10 2.</_></rects>
              <tilted>0</tilted></feature>
            <threshold>1.4965716004371643e-001</threshold>
            <left_val>-5.6347884038649709e-001</left_val>
            <right_val>4.5728643216080395e-001</right_val></_></_>
        <_>
          <_>
            <feature>
              <rects>
                <_>
                  12 0 12 6 -1.</_>
                <_>
                  12 0 6 3 2.</_>
                <_>
                  18 3 6 3 2.</_></rects>
              <tilted>0</tilted></feature>
            <threshold>2.0402897149324417e-002</threshold>
            <left_val>-2.2585011923118481e-001</left_val>
            <right_val>2.9673583630350742e-001</right_val></_></_>
        <_>
          <_>
            <feature>
              <rects>
                <_>
                  0 19 2 1 -1.</_>
                <_>
                  1 19 1 1 2.</_></rects>
              <tilted>0</tilted></feature>
            <threshold>-1.1657491086225491e-005</threshold>
            <left_val>2.0651998483601047e-001</left_val>
            <right_val>-2.5473327058654521e-001</right_val></_></_>
        <_>
          <_>
            <feature>
              <rects>
                <_>
                  14 21 1 3 -1.</_>
                <_>
                  14 22 1 1 3.</_></rects>
              <tilted>0</tilted></feature>
            <threshold>-1.2531482752820011e-005</threshold>
            <left_val>2.1008267203998721e-001</left_val>
            <right_val>-2.3552376478692388e-001</right_val></_></_>
        <_>
          <_>
            <feature>
              <rects>
                <_>
                  17 1 5 22 -1.</_>
                <_>
                  17 12 5 11 2.</_></rects>
              <tilted>0</tilted></feature>
            <threshold>1.7978332936763763e-002</threshold>
            <left_val>1.1799153849127861e-001</left_val>
            <right_val>-3.7639576506451816e-001</right_val></_></_>
        <_>
          <_>
            <feature>
              <rects>
                <_>
                  6 1 6 6 -1.</_>
                <_>
                  8 3 2 6 3.</_></rects>
              <tilted>1</tilted></feature>
            <threshold>-2.9764655977487564e-002</threshold>
            <left_val>4.0158172530762148e-001</left_val>
            <right_val>-9.4184527369420928e-002</right_val></_></_>
        <_>
          <_>
            <feature>
              <rects>
                <_>
                  22 4 2 16 -1.</_>
                <_>
                  22 4 1 8 2.</_>
                <_>
                  23 12 1 8 2.</_></rects>
              <tilted>0</tilted></feature>
            <threshold>1.4267857186496258e-002</threshold>
            <left_val>-5.1773830657688577e-002</left_val>
            <right_val>6.1273177133899226e-001</right_val></_></_>
        <_>
          <_>
            <feature>
              <rects>
                <_>
                  4 18 2 1 -1.</_>
                <_>
                  4 18 1 1 2.</_></rects>
              <tilted>1</tilted></feature>
            <threshold>1.3684850273421034e-005</threshold>
            <left_val>-2.2003987732995170e-001</left_val>
            <right_val>1.8083806594928536e-001</right_val></_></_>
        <_>
          <_>
            <feature>
              <rects>
                <_>
                  3 14 2 2 -1.</_>
                <_>
                  3 14 1 1 2.</_>
                <_>
                  4 15 1 1 2.</_></rects>
              <tilted>0</tilted></feature>
            <threshold>1.3079909876978491e-005</threshold>
            <left_val>-1.5419408742630372e-001</left_val>
            <right_val>2.1830873712509272e-001</right_val></_></_>
        <_>
          <_>
            <feature>
              <rects>
                <_>
                  3 14 2 2 -1.</_>
                <_>
                  3 14 1 1 2.</_>
                <_>
                  4 15 1 1 2.</_></rects>
              <tilted>0</tilted></feature>
            <threshold>-1.0926568393188063e-005</threshold>
            <left_val>2.5623877504617665e-001</left_val>
            <right_val>-1.6713419864655185e-001</right_val></_></_>
        <_>
          <_>
            <feature>
              <rects>
                <_>
                  12 2 12 18 -1.</_>
                <_>
                  15 2 6 18 2.</_></rects>
              <tilted>0</tilted></feature>
            <threshold>-6.6876724362373352e-002</threshold>
            <left_val>3.5118285048171782e-001</left_val>
            <right_val>-9.2943730480227471e-002</right_val></_></_>
        <_>
          <_>
            <feature>
              <rects>
                <_>
                  7 0 7 4 -1.</_>
                <_>
                  7 1 7 2 2.</_></rects>
              <tilted>0</tilted></feature>
            <threshold>1.2184794992208481e-002</threshold>
            <left_val>-9.7766402629294383e-002</left_val>
            <right_val>3.7889174226602845e-001</right_val></_></_>
        <_>
          <_>
            <feature>
              <rects>
                <_>
                  3 5 15 19 -1.</_>
                <_>
                  8 5 5 19 3.</_></rects>
              <tilted>0</tilted></feature>
            <threshold>-7.6171226799488068e-002</threshold>
            <left_val>3.2854373354158511e-001</left_val>
            <right_val>-1.3030989143226329e-001</right_val></_></_>
        <_>
          <_>
            <feature>
              <rects>
                <_>
                  8 1 4 3 -1.</_>
                <_>
                  8 2 4 1 3.</_></rects>
              <tilted>0</tilted></feature>
            <threshold>-3.3855848014354706e-003</threshold>
            <left_val>3.5075860958858945e-001</left_val>
            <right_val>-1.1133306786463028e-001</right_val></_></_>
        <_>
          <_>
            <feature>
              <rects>
                <_>
                  12 23 3 1 -1.</_>
                <_>
                  13 23 1 1 3.</_></rects>
              <tilted>0</tilted></feature>
            <threshold>-3.8345975917764008e-004</threshold>
            <left_val>-3.7447311264228833e-001</left_val>
            <right_val>9.6347856274413182e-002</right_val></_></_>
        <_>
          <_>
            <feature>
              <rects>
                <_>
                  9 12 12 12 -1.</_>
                <_>
                  13 16 4 4 9.</_></rects>
              <tilted>0</tilted></feature>
            <threshold>-6.0269653797149658e-002</threshold>
            <left_val>2.3307421062879005e-001</left_val>
            <right_val>-1.5734619014892837e-001</right_val></_></_>
        <_>
          <_>
            <feature>
              <rects>
                <_>
                  13 18 4 4 -1.</_>
                <_>
                  13 20 4 2 2.</_></rects>
              <tilted>0</tilted></feature>
            <threshold>-5.9229532780591398e-005</threshold>
            <left_val>1.7747808267217033e-001</left_val>
            <right_val>-2.2275832647471475e-001</right_val></_></_>
        <_>
          <_>
            <feature>
              <rects>
                <_>
                  22 11 2 12 -1.</_>
                <_>
                  22 11 1 6 2.</_>
                <_>
                  23 17 1 6 2.</_></rects>
              <tilted>0</tilted></feature>
            <threshold>3.6797877401113510e-003</threshold>
            <left_val>-1.1261387767390320e-001</left_val>
            <right_val>3.0639135721015026e-001</right_val></_></_>
        <_>
          <_>
            <feature>
              <rects>
                <_>
                  7 21 6 1 -1.</_>
                <_>
                  10 21 3 1 2.</_></rects>
              <tilted>0</tilted></feature>
            <threshold>-8.4047875134274364e-004</threshold>
            <left_val>-2.7582865909191229e-001</left_val>
            <right_val>1.2263000418661454e-001</right_val></_></_>
        <_>
          <_>
            <feature>
              <rects>
                <_>
                  21 4 1 3 -1.</_>
                <_>
                  20 5 1 1 3.</_></rects>
              <tilted>1</tilted></feature>
            <threshold>-1.4585785102099180e-003</threshold>
            <left_val>2.6223177826176125e-001</left_val>
            <right_val>-1.2977213066825621e-001</right_val></_></_>
        <_>
          <_>
            <feature>
              <rects>
                <_>
                  21 2 3 6 -1.</_>
                <_>
                  21 4 3 2 3.</_></rects>
              <tilted>0</tilted></feature>
            <threshold>7.5615243986248970e-003</threshold>
            <left_val>8.4478436776411495e-002</left_val>
            <right_val>-4.4377365213187547e-001</right_val></_></_>
        <_>
          <_>
            <feature>
              <rects>
                <_>
                  2 8 3 1 -1.</_>
                <_>
                  3 8 1 1 3.</_></rects>
              <tilted>0</tilted></feature>
            <threshold>-1.2020866051898338e-005</threshold>
            <left_val>1.8429880295382906e-001</left_val>
            <right_val>-1.9326446067475303e-001</right_val></_></_>
        <_>
          <_>
            <feature>
              <rects>
                <_>
                  2 21 1 3 -1.</_>
                <_>
                  2 22 1 1 3.</_></rects>
              <tilted>0</tilted></feature>
            <threshold>-1.2531482752820011e-005</threshold>
            <left_val>1.7921811958905642e-001</left_val>
            <right_val>-1.9950855121261168e-001</right_val></_></_>
        <_>
          <_>
            <feature>
              <rects>
                <_>
                  16 7 3 1 -1.</_>
                <_>
                  17 7 1 1 3.</_></rects>
              <tilted>0</tilted></feature>
            <threshold>-1.3431300430966076e-005</threshold>
            <left_val>1.9196685500469166e-001</left_val>
            <right_val>-1.8400532971475517e-001</right_val></_></_>
        <_>
          <_>
            <feature>
              <rects>
                <_>
                  14 7 1 3 -1.</_>
                <_>
                  14 8 1 1 3.</_></rects>
              <tilted>0</tilted></feature>
            <threshold>-1.1388632628950290e-005</threshold>
            <left_val>1.7280034185525878e-001</left_val>
            <right_val>-1.9219688168534402e-001</right_val></_></_>
        <_>
          <_>
            <feature>
              <rects>
                <_>
                  16 9 3 15 -1.</_>
                <_>
                  16 14 3 5 3.</_></rects>
              <tilted>0</tilted></feature>
            <threshold>-1.2394788675010204e-002</threshold>
            <left_val>2.2678276855030952e-001</left_val>
            <right_val>-1.4816053756685540e-001</right_val></_></_>
        <_>
          <_>
            <feature>
              <rects>
                <_>
                  0 7 3 14 -1.</_>
                <_>
                  1 7 1 14 3.</_></rects>
              <tilted>0</tilted></feature>
            <threshold>-4.9996976740658283e-003</threshold>
            <left_val>2.6545874446646839e-001</left_val>
            <right_val>-1.2385584210554307e-001</right_val></_></_>
        <_>
          <_>
            <feature>
              <rects>
                <_>
                  0 9 2 1 -1.</_>
                <_>
                  1 9 1 1 2.</_></rects>
              <tilted>0</tilted></feature>
            <threshold>2.7393938580644317e-005</threshold>
            <left_val>-1.7976818310757836e-001</left_val>
            <right_val>2.1301340822596920e-001</right_val></_></_>
        <_>
          <_>
            <feature>
              <rects>
                <_>
                  11 1 6 3 -1.</_>
                <_>
                  13 1 2 3 3.</_></rects>
              <tilted>0</tilted></feature>
            <threshold>-9.5400791615247726e-003</threshold>
            <left_val>-5.2951167538957067e-001</left_val>
            <right_val>6.8671657834945013e-002</right_val></_></_>
        <_>
          <_>
            <feature>
              <rects>
                <_>
                  20 11 4 4 -1.</_>
                <_>
                  21 11 2 4 2.</_></rects>
              <tilted>0</tilted></feature>
            <threshold>-3.3265962265431881e-003</threshold>
            <left_val>3.1769437747353851e-001</left_val>
            <right_val>-1.1750611171478149e-001</right_val></_></_>
        <_>
          <_>
            <feature>
              <rects>
                <_>
                  20 18 1 2 -1.</_>
                <_>
                  20 19 1 1 2.</_></rects>
              <tilted>0</tilted></feature>
            <threshold>6.3193810638040304e-004</threshold>
            <left_val>8.1069357686667398e-002</left_val>
            <right_val>-4.3291019581560430e-001</right_val></_></_>
        <_>
          <_>
            <feature>
              <rects>
                <_>
                  19 23 2 1 -1.</_>
                <_>
                  20 23 1 1 2.</_></rects>
              <tilted>0</tilted></feature>
            <threshold>1.2531482752820011e-005</threshold>
            <left_val>-1.8627150182389293e-001</left_val>
            <right_val>1.7869672975823028e-001</right_val></_></_></trees>
      <stage_threshold>-1.5371540784835815e+000</stage_threshold>
      <parent>3</parent>
      <next>-1</next></_>
    <_>
      <trees>
        <_>
          <_>
            <feature>
              <rects>
                <_>
                  4 0 16 4 -1.</_>
                <_>
                  4 1 16 2 2.</_></rects>
              <tilted>0</tilted></feature>
            <threshold>1.7320517450571060e-002</threshold>
            <left_val>-6.4750378214822291e-001</left_val>
            <right_val>2.0143884892086611e-001</right_val></_></_>
        <_>
          <_>
            <feature>
              <rects>
                <_>
                  2 12 1 10 -1.</_>
                <_>
                  2 17 1 5 2.</_></rects>
              <tilted>0</tilted></feature>
            <threshold>-1.2211756547912955e-003</threshold>
            <left_val>1.3270949314837618e-001</left_val>
            <right_val>-3.6068115480453117e-001</right_val></_></_>
        <_>
          <_>
            <feature>
              <rects>
                <_>
                  10 6 1 4 -1.</_>
                <_>
                  10 7 1 2 2.</_></rects>
              <tilted>0</tilted></feature>
            <threshold>-1.4460156671702862e-004</threshold>
            <left_val>2.2841067557461581e-001</left_val>
            <right_val>-2.4687899360972554e-001</right_val></_></_>
        <_>
          <_>
            <feature>
              <rects>
                <_>
                  20 19 4 1 -1.</_>
                <_>
                  22 19 2 1 2.</_></rects>
              <tilted>0</tilted></feature>
            <threshold>2.8839174774475396e-004</threshold>
            <left_val>-2.5183415707850276e-001</left_val>
            <right_val>2.1401762304956795e-001</right_val></_></_>
        <_>
          <_>
            <feature>
              <rects>
                <_>
                  21 6 1 16 -1.</_>
                <_>
                  21 14 1 8 2.</_></rects>
              <tilted>0</tilted></feature>
            <threshold>-2.1344001870602369e-003</threshold>
            <left_val>2.1351643124577085e-001</left_val>
            <right_val>-2.3675783145246923e-001</right_val></_></_>
        <_>
          <_>
            <feature>
              <rects>
                <_>
                  12 1 1 4 -1.</_>
                <_>
                  12 2 1 2 2.</_></rects>
              <tilted>0</tilted></feature>
            <threshold>-3.5086227580904961e-004</threshold>
            <left_val>2.4760493395298697e-001</left_val>
            <right_val>-1.8345568259396933e-001</right_val></_></_>
        <_>
          <_>
            <feature>
              <rects>
                <_>
                  2 1 18 4 -1.</_>
                <_>
                  2 2 18 2 2.</_></rects>
              <tilted>0</tilted></feature>
            <threshold>1.6341501846909523e-002</threshold>
            <left_val>-1.0356973526947919e-001</left_val>
            <right_val>5.3450603923061013e-001</right_val></_></_>
        <_>
          <_>
            <feature>
              <rects>
                <_>
                  10 20 1 4 -1.</_>
                <_>
                  10 21 1 2 2.</_></rects>
              <tilted>0</tilted></feature>
            <threshold>-6.3168350607156754e-005</threshold>
            <left_val>2.0983875240109567e-001</left_val>
            <right_val>-2.0578712872629246e-001</right_val></_></_>
        <_>
          <_>
            <feature>
              <rects>
                <_>
                  1 1 17 3 -1.</_>
                <_>
                  1 2 17 1 3.</_></rects>
              <tilted>0</tilted></feature>
            <threshold>-9.9803023040294647e-003</threshold>
            <left_val>3.5950467179828849e-001</left_val>
            <right_val>-1.0485180361422802e-001</right_val></_></_>
        <_>
          <_>
            <feature>
              <rects>
                <_>
                  21 23 3 1 -1.</_>
                <_>
                  22 23 1 1 3.</_></rects>
              <tilted>0</tilted></feature>
            <threshold>1.3741812435910106e-003</threshold>
            <left_val>6.6627304263189843e-002</left_val>
            <right_val>-6.1880431639686062e-001</right_val></_></_>
        <_>
          <_>
            <feature>
              <rects>
                <_>
                  13 2 1 2 -1.</_>
                <_>
                  13 2 1 1 2.</_></rects>
              <tilted>1</tilted></feature>
            <threshold>1.7595161625649780e-004</threshold>
            <left_val>-2.1210753618954897e-001</left_val>
            <right_val>1.7333051482861023e-001</right_val></_></_>
        <_>
          <_>
            <feature>
              <rects>
                <_>
                  13 1 9 1 -1.</_>
                <_>
                  16 1 3 1 3.</_></rects>
              <tilted>0</tilted></feature>
            <threshold>-7.3123052716255188e-003</threshold>
            <left_val>-5.0627836365035317e-001</left_val>
            <right_val>8.2538008851686342e-002</right_val></_></_>
        <_>
          <_>
            <feature>
              <rects>
                <_>
                  3 10 2 4 -1.</_>
                <_>
                  3 11 2 2 2.</_></rects>
              <tilted>0</tilted></feature>
            <threshold>-4.3678341899067163e-004</threshold>
            <left_val>2.3323125124314384e-001</left_val>
            <right_val>-1.7091128030983005e-001</right_val></_></_>
        <_>
          <_>
            <feature>
              <rects>
                <_>
                  20 7 3 3 -1.</_>
                <_>
                  21 7 1 3 3.</_></rects>
              <tilted>0</tilted></feature>
            <threshold>-7.5497489888221025e-004</threshold>
            <left_val>2.6918185968906932e-001</left_val>
            <right_val>-1.4070615577985648e-001</right_val></_></_>
        <_>
          <_>
            <feature>
              <rects>
                <_>
                  20 20 2 4 -1.</_>
                <_>
                  20 21 2 2 2.</_></rects>
              <tilted>0</tilted></feature>
            <threshold>-6.6133221844211221e-004</threshold>
            <left_val>2.4446954750099509e-001</left_val>
            <right_val>-1.4868901301532567e-001</right_val></_></_>
        <_>
          <_>
            <feature>
              <rects>
                <_>
                  22 18 2 6 -1.</_>
                <_>
                  22 21 2 3 2.</_></rects>
              <tilted>0</tilted></feature>
            <threshold>-7.6969750225543976e-003</threshold>
            <left_val>-5.0336591928041408e-001</left_val>
            <right_val>8.2529211898515240e-002</right_val></_></_>
        <_>
          <_>
            <feature>
              <rects>
                <_>
                  10 11 14 6 -1.</_>
                <_>
                  10 11 7 3 2.</_>
                <_>
                  17 14 7 3 2.</_></rects>
              <tilted>0</tilted></feature>
            <threshold>2.0474817138165236e-003</threshold>
            <left_val>-1.9892291141192989e-001</left_val>
            <right_val>1.9644999686309508e-001</right_val></_></_>
        <_>
          <_>
            <feature>
              <rects>
                <_>
                  12 1 3 1 -1.</_>
                <_>
                  13 1 1 1 3.</_></rects>
              <tilted>0</tilted></feature>
            <threshold>-1.8100030720233917e-003</threshold>
            <left_val>-6.2476677559679117e-001</left_val>
            <right_val>5.2143931485126513e-002</right_val></_></_>
        <_>
          <_>
            <feature>
              <rects>
                <_>
                  6 5 10 2 -1.</_>
                <_>
                  6 6 10 1 2.</_></rects>
              <tilted>0</tilted></feature>
            <threshold>1.5991105465218425e-003</threshold>
            <left_val>1.0414524248793057e-001</left_val>
            <right_val>-3.0578767854229877e-001</right_val></_></_>
        <_>
          <_>
            <feature>
              <rects>
                <_>
                  1 9 21 4 -1.</_>
                <_>
                  1 10 21 2 2.</_></rects>
              <tilted>0</tilted></feature>
            <threshold>-5.6484900414943695e-003</threshold>
            <left_val>2.6836221915932634e-001</left_val>
            <right_val>-1.2349904914836828e-001</right_val></_></_>
        <_>
          <_>
            <feature>
              <rects>
                <_>
                  10 1 4 1 -1.</_>
                <_>
                  11 1 2 1 2.</_></rects>
              <tilted>0</tilted></feature>
            <threshold>-2.5531118735671043e-003</threshold>
            <left_val>-6.7509247772305503e-001</left_val>
            <right_val>4.8774712001951361e-002</right_val></_></_>
        <_>
          <_>
            <feature>
              <rects>
                <_>
                  22 3 2 9 -1.</_>
                <_>
                  23 3 1 9 2.</_></rects>
              <tilted>0</tilted></feature>
            <threshold>-3.1941006891429424e-003</threshold>
            <left_val>2.7037593825172979e-001</left_val>
            <right_val>-1.2567297667464283e-001</right_val></_></_>
        <_>
          <_>
            <feature>
              <rects>
                <_>
                  0 11 2 12 -1.</_>
                <_>
                  1 11 1 12 2.</_></rects>
              <tilted>0</tilted></feature>
            <threshold>-1.4363650232553482e-002</threshold>
            <left_val>4.4990403995808187e-001</left_val>
            <right_val>-7.4643335282813000e-002</right_val></_></_>
        <_>
          <_>
            <feature>
              <rects>
                <_>
                  21 0 2 12 -1.</_>
                <_>
                  17 4 2 4 3.</_></rects>
              <tilted>1</tilted></feature>
            <threshold>-1.4994311146438122e-002</threshold>
            <left_val>1.9837946556390729e-001</left_val>
            <right_val>-1.6432380856196799e-001</right_val></_></_>
        <_>
          <_>
            <feature>
              <rects>
                <_>
                  2 2 16 20 -1.</_>
                <_>
                  2 12 16 10 2.</_></rects>
              <tilted>0</tilted></feature>
            <threshold>-1.7279247939586639e-001</threshold>
            <left_val>2.9848810068345932e-001</left_val>
            <right_val>-1.3403242648409669e-001</right_val></_></_>
        <_>
          <_>
            <feature>
              <rects>
                <_>
                  4 3 20 16 -1.</_>
                <_>
                  4 11 20 8 2.</_></rects>
              <tilted>0</tilted></feature>
            <threshold>1.2144823372364044e-001</threshold>
            <left_val>-1.0693470795631033e-001</left_val>
            <right_val>3.7907591351140263e-001</right_val></_></_>
        <_>
          <_>
            <feature>
              <rects>
                <_>
                  5 13 9 11 -1.</_>
                <_>
                  8 13 3 11 3.</_></rects>
              <tilted>0</tilted></feature>
            <threshold>1.9664648920297623e-002</threshold>
            <left_val>1.0295289159766847e-001</left_val>
            <right_val>-3.4372869166184872e-001</right_val></_></_>
        <_>
          <_>
            <feature>
              <rects>
                <_>
                  0 7 21 4 -1.</_>
                <_>
                  0 8 21 2 2.</_></rects>
              <tilted>0</tilted></feature>
            <threshold>-1.0939798317849636e-002</threshold>
            <left_val>3.2704814405025395e-001</left_val>
            <right_val>-9.8036396988495811e-002</right_val></_></_>
        <_>
          <_>
            <feature>
              <rects>
                <_>
                  14 10 2 2 -1.</_>
                <_>
                  14 11 2 1 2.</_></rects>
              <tilted>0</tilted></feature>
            <threshold>-1.6092299483716488e-004</threshold>
            <left_val>2.2426712132128193e-001</left_val>
            <right_val>-1.4870603834066928e-001</right_val></_></_>
        <_>
          <_>
            <feature>
              <rects>
                <_>
                  20 17 3 6 -1.</_>
                <_>
                  21 19 1 2 9.</_></rects>
              <tilted>0</tilted></feature>
            <threshold>-1.8716106191277504e-002</threshold>
            <left_val>4.5003478857110385e-001</left_val>
            <right_val>-6.4422060398042214e-002</right_val></_></_>
        <_>
          <_>
            <feature>
              <rects>
                <_>
                  3 6 4 2 -1.</_>
                <_>
                  4 6 2 2 2.</_></rects>
              <tilted>0</tilted></feature>
            <threshold>-4.6311074402183294e-004</threshold>
            <left_val>2.1381669858667754e-001</left_val>
            <right_val>-1.3849555597306101e-001</right_val></_></_>
        <_>
          <_>
            <feature>
              <rects>
                <_>
                  2 4 3 3 -1.</_>
                <_>
                  3 4 1 3 3.</_></rects>
              <tilted>0</tilted></feature>
            <threshold>-6.0755701269954443e-004</threshold>
            <left_val>2.2831464572428517e-001</left_val>
            <right_val>-1.3678437627159534e-001</right_val></_></_>
        <_>
          <_>
            <feature>
              <rects>
                <_>
                  21 4 2 4 -1.</_>
                <_>
                  21 5 2 2 2.</_></rects>
              <tilted>0</tilted></feature>
            <threshold>-3.4316988603677601e-005</threshold>
            <left_val>1.6653490250004266e-001</left_val>
            <right_val>-1.7971364494402550e-001</right_val></_></_>
        <_>
          <_>
            <feature>
              <rects>
                <_>
                  9 21 2 2 -1.</_>
                <_>
                  9 21 1 1 2.</_>
                <_>
                  10 22 1 1 2.</_></rects>
              <tilted>0</tilted></feature>
            <threshold>2.9162375722080469e-004</threshold>
            <left_val>8.4514415934779943e-002</left_val>
            <right_val>-3.4493391093375497e-001</right_val></_></_></trees>
      <stage_threshold>-1.6022133827209473e+000</stage_threshold>
      <parent>4</parent>
      <next>-1</next></_>
    <_>
      <trees>
        <_>
          <_>
            <feature>
              <rects>
                <_>
                  6 0 14 4 -1.</_>
                <_>
                  6 1 14 2 2.</_></rects>
              <tilted>0</tilted></feature>
            <threshold>3.1315885484218597e-002</threshold>
            <left_val>-5.8532364139836757e-001</left_val>
            <right_val>2.9260450160771923e-001</right_val></_></_>
        <_>
          <_>
            <feature>
              <rects>
                <_>
                  7 5 10 16 -1.</_>
                <_>
                  7 9 10 8 2.</_></rects>
              <tilted>0</tilted></feature>
            <threshold>8.3242803812026978e-002</threshold>
            <left_val>-2.1634225139456245e-001</left_val>
            <right_val>3.0753505989949326e-001</right_val></_></_>
        <_>
          <_>
            <feature>
              <rects>
                <_>
                  14 23 2 1 -1.</_>
                <_>
                  15 23 1 1 2.</_></rects>
              <tilted>0</tilted></feature>
            <threshold>-1.8453859956935048e-004</threshold>
            <left_val>-3.6294732324904899e-001</left_val>
            <right_val>1.3143491662060885e-001</right_val></_></_>
        <_>
          <_>
            <feature>
              <rects>
                <_>
                  12 23 4 1 -1.</_>
                <_>
                  13 23 2 1 2.</_></rects>
              <tilted>0</tilted></feature>
            <threshold>-2.4473769008181989e-004</threshold>
            <left_val>-3.2956877282322600e-001</left_val>
            <right_val>1.4246495788891780e-001</right_val></_></_>
        <_>
          <_>
            <feature>
              <rects>
                <_>
                  22 10 2 11 -1.</_>
                <_>
                  23 10 1 11 2.</_></rects>
              <tilted>0</tilted></feature>
            <threshold>1.1339573189616203e-002</threshold>
            <left_val>-9.0877033305627977e-002</left_val>
            <right_val>4.5810167005493474e-001</right_val></_></_>
        <_>
          <_>
            <feature>
              <rects>
                <_>
                  12 16 2 2 -1.</_>
                <_>
                  12 16 1 1 2.</_>
                <_>
                  13 17 1 1 2.</_></rects>
              <tilted>0</tilted></feature>
            <threshold>5.6467961985617876e-004</threshold>
            <left_val>8.8238870346654785e-002</left_val>
            <right_val>-4.6495329830337961e-001</right_val></_></_>
        <_>
          <_>
            <feature>
              <rects>
                <_>
                  6 1 15 4 -1.</_>
                <_>
                  6 2 15 2 2.</_></rects>
              <tilted>0</tilted></feature>
            <threshold>-1.5338287688791752e-002</threshold>
            <left_val>4.4963581745021286e-001</left_val>
            <right_val>-6.1486267575127665e-002</right_val></_></_>
        <_>
          <_>
            <feature>
              <rects>
                <_>
                  0 8 2 16 -1.</_>
                <_>
                  0 8 1 8 2.</_>
                <_>
                  1 16 1 8 2.</_></rects>
              <tilted>0</tilted></feature>
            <threshold>-1.0892386548221111e-002</threshold>
            <left_val>4.4569679082877406e-001</left_val>
            <right_val>-8.5489596252131247e-002</right_val></_></_>
        <_>
          <_>
            <feature>
              <rects>
                <_>
                  10 8 3 1 -1.</_>
                <_>
                  11 8 1 1 3.</_></rects>
              <tilted>0</tilted></feature>
            <threshold>4.9726816359907389e-004</threshold>
            <left_val>9.9682172104771580e-002</left_val>
            <right_val>-3.6581228954733308e-001</right_val></_></_>
        <_>
          <_>
            <feature>
              <rects>
                <_>
                  11 8 2 1 -1.</_>
                <_>
                  12 8 1 1 2.</_></rects>
              <tilted>0</tilted></feature>
            <threshold>4.4224306475371122e-004</threshold>
            <left_val>1.1916114831934112e-001</left_val>
            <right_val>-3.1080076293167536e-001</right_val></_></_>
        <_>
          <_>
            <feature>
              <rects>
                <_>
                  15 16 6 2 -1.</_>
                <_>
                  17 18 2 2 3.</_></rects>
              <tilted>1</tilted></feature>
            <threshold>-3.6370106972754002e-003</threshold>
            <left_val>1.7970166605545676e-001</left_val>
            <right_val>-1.7906137298843613e-001</right_val></_></_>
        <_>
          <_>
            <feature>
              <rects>
                <_>
                  21 23 2 1 -1.</_>
                <_>
                  22 23 1 1 2.</_></rects>
              <tilted>0</tilted></feature>
            <threshold>-4.6735856449231505e-004</threshold>
            <left_val>-3.9973482331453658e-001</left_val>
            <right_val>8.6924633990636907e-002</right_val></_></_>
        <_>
          <_>
            <feature>
              <rects>
                <_>
                  19 23 4 1 -1.</_>
                <_>
                  20 23 2 1 2.</_></rects>
              <tilted>0</tilted></feature>
            <threshold>-1.2300189118832350e-003</threshold>
            <left_val>-4.6476146276735203e-001</left_val>
            <right_val>7.3693410082980096e-002</right_val></_></_>
        <_>
          <_>
            <feature>
              <rects>
                <_>
                  20 5 4 8 -1.</_>
                <_>
                  22 5 2 8 2.</_></rects>
              <tilted>0</tilted></feature>
            <threshold>-1.6396943479776382e-002</threshold>
            <left_val>3.6699081995432775e-001</left_val>
            <right_val>-9.6701484050565376e-002</right_val></_></_>
        <_>
          <_>
            <feature>
              <rects>
                <_>
                  15 0 3 3 -1.</_>
                <_>
                  16 0 1 3 3.</_></rects>
              <tilted>0</tilted></feature>
            <threshold>-3.2808864489197731e-003</threshold>
            <left_val>-4.8536630660522712e-001</left_val>
            <right_val>6.9370212988692961e-002</right_val></_></_>
        <_>
          <_>
            <feature>
              <rects>
                <_>
                  4 20 2 2 -1.</_>
                <_>
                  5 20 1 2 2.</_></rects>
              <tilted>0</tilted></feature>
            <threshold>-4.4416281161829829e-004</threshold>
            <left_val>-3.2053797239164561e-001</left_val>
            <right_val>1.0537345934857913e-001</right_val></_></_>
        <_>
          <_>
            <feature>
              <rects>
                <_>
                  0 23 24 1 -1.</_>
                <_>
                  6 23 12 1 2.</_></rects>
              <tilted>0</tilted></feature>
            <threshold>-3.6203670315444469e-003</threshold>
            <left_val>1.7505705305884231e-001</left_val>
            <right_val>-1.8163939409979926e-001</right_val></_></_>
        <_>
          <_>
            <feature>
              <rects>
                <_>
                  4 0 18 4 -1.</_>
                <_>
                  4 2 18 2 2.</_></rects>
              <tilted>0</tilted></feature>
            <threshold>3.0710058286786079e-002</threshold>
            <left_val>-8.5714262953071788e-002</left_val>
            <right_val>4.0888825329006506e-001</right_val></_></_>
        <_>
          <_>
            <feature>
              <rects>
                <_>
                  12 0 1 8 -1.</_>
                <_>
                  12 4 1 4 2.</_></rects>
              <tilted>0</tilted></feature>
            <threshold>1.5514450205955654e-004</threshold>
            <left_val>1.2753328747751980e-001</left_val>
            <right_val>-2.9386977520851876e-001</right_val></_></_>
        <_>
          <_>
            <feature>
              <rects>
                <_>
                  12 1 1 8 -1.</_>
                <_>
                  12 5 1 4 2.</_></rects>
              <tilted>0</tilted></feature>
            <threshold>-7.9531688243150711e-003</threshold>
            <left_val>-3.8744586521641033e-001</left_val>
            <right_val>8.2235808716855249e-002</right_val></_></_>
        <_>
          <_>
            <feature>
              <rects>
                <_>
                  0 18 2 3 -1.</_>
                <_>
                  0 19 2 1 3.</_></rects>
              <tilted>0</tilted></feature>
            <threshold>-1.5507085481658578e-003</threshold>
            <left_val>-4.2250612052634706e-001</left_val>
            <right_val>7.8563984861150349e-002</right_val></_></_>
        <_>
          <_>
            <feature>
              <rects>
                <_>
                  7 20 11 3 -1.</_>
                <_>
                  7 21 11 1 3.</_></rects>
              <tilted>0</tilted></feature>
            <threshold>-1.0340199805796146e-003</threshold>
            <left_val>1.8517399344935859e-001</left_val>
            <right_val>-1.7872706049639994e-001</right_val></_></_>
        <_>
          <_>
            <feature>
              <rects>
                <_>
                  12 5 3 18 -1.</_>
                <_>
                  13 11 1 6 9.</_></rects>
              <tilted>0</tilted></feature>
            <threshold>-2.9209990054368973e-002</threshold>
            <left_val>3.4710286566446935e-001</left_val>
            <right_val>-9.6181110519379900e-002</right_val></_></_>
        <_>
          <_>
            <feature>
              <rects>
                <_>
                  7 1 17 3 -1.</_>
                <_>
                  7 2 17 1 3.</_></rects>
              <tilted>0</tilted></feature>
            <threshold>-9.5762694254517555e-003</threshold>
            <left_val>2.9972078769606908e-001</left_val>
            <right_val>-8.9895489662640063e-002</right_val></_></_>
        <_>
          <_>
            <feature>
              <rects>
                <_>
                  12 0 8 3 -1.</_>
                <_>
                  11 1 8 1 3.</_></rects>
              <tilted>1</tilted></feature>
            <threshold>-2.1501516923308372e-002</threshold>
            <left_val>-8.0112020107990645e-001</left_val>
            <right_val>3.7429943412766488e-002</right_val></_></_>
        <_>
          <_>
            <feature>
              <rects>
                <_>
                  9 0 7 4 -1.</_>
                <_>
                  9 1 7 2 2.</_></rects>
              <tilted>0</tilted></feature>
            <threshold>6.5547279082238674e-003</threshold>
            <left_val>-1.2594448828178284e-001</left_val>
            <right_val>2.4895746918288431e-001</right_val></_></_>
        <_>
          <_>
            <feature>
              <rects>
                <_>
                  1 0 2 3 -1.</_>
                <_>
                  1 1 2 1 3.</_></rects>
              <tilted>0</tilted></feature>
            <threshold>7.9291057772934437e-004</threshold>
            <left_val>1.0274759988954846e-001</left_val>
            <right_val>-3.0719687262025808e-001</right_val></_></_>
        <_>
          <_>
            <feature>
              <rects>
                <_>
                  11 22 2 2 -1.</_>
                <_>
                  11 22 1 1 2.</_>
                <_>
                  12 23 1 1 2.</_></rects>
              <tilted>0</tilted></feature>
            <threshold>9.2874059919267893e-004</threshold>
            <left_val>4.6774508911716264e-002</left_val>
            <right_val>-5.9399239328228404e-001</right_val></_></_>
        <_>
          <_>
            <feature>
              <rects>
                <_>
                  2 5 3 6 -1.</_>
                <_>
                  2 7 3 2 3.</_></rects>
              <tilted>0</tilted></feature>
            <threshold>-1.8541765166446567e-003</threshold>
            <left_val>1.8730049912101596e-001</left_val>
            <right_val>-1.5674472605211498e-001</right_val></_></_></trees>
      <stage_threshold>-1.4333757162094116e+000</stage_threshold>
      <parent>5</parent>
      <next>-1</next></_>
    <_>
      <trees>
        <_>
          <_>
            <feature>
              <rects>
                <_>
                  10 3 12 9 -1.</_>
                <_>
                  14 7 4 9 3.</_></rects>
              <tilted>1</tilted></feature>
            <threshold>1.8999192118644714e-001</threshold>
            <left_val>-5.6065798492113672e-001</left_val>
            <right_val>1.2765957446808587e-001</right_val></_></_>
        <_>
          <_>
            <feature>
              <rects>
                <_>
                  1 23 2 1 -1.</_>
                <_>
                  2 23 1 1 2.</_></rects>
              <tilted>0</tilted></feature>
            <threshold>8.4379025793168694e-005</threshold>
            <left_val>9.0996281557520181e-002</left_val>
            <right_val>-4.0426958516629258e-001</right_val></_></_>
        <_>
          <_>
            <feature>
              <rects>
                <_>
                  22 6 2 16 -1.</_>
                <_>
                  22 6 1 8 2.</_>
                <_>
                  23 14 1 8 2.</_></rects>
              <tilted>0</tilted></feature>
            <threshold>8.0303754657506943e-003</threshold>
            <left_val>-1.3236780674335921e-001</left_val>
            <right_val>4.0257348600459586e-001</right_val></_></_>
        <_>
          <_>
            <feature>
              <rects>
                <_>
                  6 18 1 2 -1.</_>
                <_>
                  6 19 1 1 2.</_></rects>
              <tilted>0</tilted></feature>
            <threshold>3.6523226299323142e-004</threshold>
            <left_val>1.2100642263733327e-001</left_val>
            <right_val>-4.0698190040758353e-001</right_val></_></_>
        <_>
          <_>
            <feature>
              <rects>
                <_>
                  0 0 12 6 -1.</_>
                <_>
                  0 0 6 3 2.</_>
                <_>
                  6 3 6 3 2.</_></rects>
              <tilted>0</tilted></feature>
            <threshold>-2.2553417831659317e-002</threshold>
            <left_val>3.5158246253857883e-001</left_val>
            <right_val>-1.2609328624989480e-001</right_val></_></_>
        <_>
          <_>
            <feature>
              <rects>
                <_>
                  12 23 4 1 -1.</_>
                <_>
                  13 23 2 1 2.</_></rects>
              <tilted>0</tilted></feature>
            <threshold>2.4464749731123447e-004</threshold>
            <left_val>1.3561452933330956e-001</left_val>
            <right_val>-3.0356016982616330e-001</right_val></_></_>
        <_>
          <_>
            <feature>
              <rects>
                <_>
                  12 23 4 1 -1.</_>
                <_>
                  13 23 2 1 2.</_></rects>
              <tilted>0</tilted></feature>
            <threshold>-1.6569020226597786e-004</threshold>
            <left_val>-2.6549832118465216e-001</left_val>
            <right_val>1.8816877129148782e-001</right_val></_></_>
        <_>
          <_>
            <feature>
              <rects>
                <_>
                  0 3 6 20 -1.</_>
                <_>
                  0 3 3 10 2.</_>
                <_>
                  3 13 3 10 2.</_></rects>
              <tilted>0</tilted></feature>
            <threshold>-3.3311568200588226e-002</threshold>
            <left_val>3.7990936899831290e-001</left_val>
            <right_val>-1.2412344938517325e-001</right_val></_></_>
        <_>
          <_>
            <feature>
              <rects>
                <_>
                  18 3 4 3 -1.</_>
                <_>
                  18 4 4 1 3.</_></rects>
              <tilted>0</tilted></feature>
            <threshold>-3.6586425267159939e-003</threshold>
            <left_val>-4.5968352244544480e-001</left_val>
            <right_val>9.5083881640641771e-002</right_val></_></_>
        <_>
          <_>
            <feature>
              <rects>
                <_>
                  9 21 2 2 -1.</_>
                <_>
                  9 21 1 1 2.</_>
                <_>
                  10 22 1 1 2.</_></rects>
              <tilted>0</tilted></feature>
            <threshold>-2.0325439982116222e-004</threshold>
            <left_val>-3.1361379070307449e-001</left_val>
            <right_val>1.1859741189056315e-001</right_val></_></_>
        <_>
          <_>
            <feature>
              <rects>
                <_>
                  8 6 1 2 -1.</_>
                <_>
                  8 7 1 1 2.</_></rects>
              <tilted>0</tilted></feature>
            <threshold>7.1640242822468281e-004</threshold>
            <left_val>8.6557558447613606e-002</left_val>
            <right_val>-4.1637099327616861e-001</right_val></_></_>
        <_>
          <_>
            <feature>
              <rects>
                <_>
                  10 1 4 10 -1.</_>
                <_>
                  11 2 2 10 2.</_></rects>
              <tilted>1</tilted></feature>
            <threshold>-1.2570413760840893e-002</threshold>
            <left_val>3.1001292546646386e-001</left_val>
            <right_val>-1.2181929307949990e-001</right_val></_></_>
        <_>
          <_>
            <feature>
              <rects>
                <_>
                  21 11 3 4 -1.</_>
                <_>
                  22 11 1 4 3.</_></rects>
              <tilted>0</tilted></feature>
            <threshold>-5.2722813561558723e-003</threshold>
            <left_val>4.1422132922109184e-001</left_val>
            <right_val>-8.8255603931220283e-002</right_val></_></_>
        <_>
          <_>
            <feature>
              <rects>
                <_>
                  6 0 6 5 -1.</_>
                <_>
                  8 2 2 5 3.</_></rects>
              <tilted>1</tilted></feature>
            <threshold>-3.3354073762893677e-002</threshold>
            <left_val>3.6215598538933952e-001</left_val>
            <right_val>-8.9868848065218193e-002</right_val></_></_>
        <_>
          <_>
            <feature>
              <rects>
                <_>
                  10 13 8 4 -1.</_>
                <_>
                  12 13 4 4 2.</_></rects>
              <tilted>0</tilted></feature>
            <threshold>2.9471395537257195e-002</threshold>
            <left_val>-4.3755310957056301e-002</left_val>
            <right_val>7.8055627883475054e-001</right_val></_></_>
        <_>
          <_>
            <feature>
              <rects>
                <_>
                  18 0 4 8 -1.</_>
                <_>
                  18 0 2 4 2.</_>
                <_>
                  20 4 2 4 2.</_></rects>
              <tilted>0</tilted></feature>
            <threshold>8.5812248289585114e-003</threshold>
            <left_val>-9.4010780256580370e-002</left_val>
            <right_val>3.2865072435912024e-001</right_val></_></_>
        <_>
          <_>
            <feature>
              <rects>
                <_>
                  14 4 1 2 -1.</_>
                <_>
                  14 5 1 1 2.</_></rects>
              <tilted>0</tilted></feature>
            <threshold>2.4936566478572786e-004</threshold>
            <left_val>1.0865367319865109e-001</left_val>
            <right_val>-3.2102220882761401e-001</right_val></_></_>
        <_>
          <_>
            <feature>
              <rects>
                <_>
                  12 4 4 2 -1.</_>
                <_>
                  12 5 4 1 2.</_></rects>
              <tilted>0</tilted></feature>
            <threshold>-2.7498879935592413e-003</threshold>
            <left_val>-3.9949962861058352e-001</left_val>
            <right_val>9.6535085195783826e-002</right_val></_></_>
        <_>
          <_>
            <feature>
              <rects>
                <_>
                  7 0 8 7 -1.</_>
                <_>
                  9 2 4 7 2.</_></rects>
              <tilted>1</tilted></feature>
            <threshold>6.8224743008613586e-002</threshold>
            <left_val>-5.0863837128797017e-002</left_val>
            <right_val>6.7824405102800589e-001</right_val></_></_>
        <_>
          <_>
            <feature>
              <rects>
                <_>
                  3 14 16 10 -1.</_>
                <_>
                  3 14 8 5 2.</_>
                <_>
                  11 19 8 5 2.</_></rects>
              <tilted>0</tilted></feature>
            <threshold>-4.7651465982198715e-002</threshold>
            <left_val>4.2570079135033545e-001</left_val>
            <right_val>-8.1453168114112684e-002</right_val></_></_>
        <_>
          <_>
            <feature>
              <rects>
                <_>
                  13 7 4 10 -1.</_>
                <_>
                  13 7 2 10 2.</_></rects>
              <tilted>1</tilted></feature>
            <threshold>5.2099727094173431e-002</threshold>
            <left_val>-5.9861848666202741e-002</left_val>
            <right_val>5.8095726410781434e-001</right_val></_></_>
        <_>
          <_>
            <feature>
              <rects>
                <_>
                  18 14 1 2 -1.</_>
                <_>
                  18 15 1 1 2.</_></rects>
              <tilted>0</tilted></feature>
            <threshold>3.5222421865910292e-004</threshold>
            <left_val>1.0441543488034115e-001</left_val>
            <right_val>-3.4064117616452200e-001</right_val></_></_>
        <_>
          <_>
            <feature>
              <rects>
                <_>
                  2 6 21 3 -1.</_>
                <_>
                  9 7 7 1 9.</_></rects>
              <tilted>0</tilted></feature>
            <threshold>-1.3894642703235149e-002</threshold>
            <left_val>1.7221195793928909e-001</left_val>
            <right_val>-1.9531918869239040e-001</right_val></_></_>
        <_>
          <_>
            <feature>
              <rects>
                <_>
                  0 12 3 12 -1.</_>
                <_>
                  1 12 1 12 3.</_></rects>
              <tilted>0</tilted></feature>
            <threshold>-5.4508829489350319e-003</threshold>
            <left_val>2.8947470779796586e-001</left_val>
            <right_val>-1.2171112844299528e-001</right_val></_></_>
        <_>
          <_>
            <feature>
              <rects>
                <_>
                  19 15 1 3 -1.</_>
                <_>
                  19 16 1 1 3.</_></rects>
              <tilted>0</tilted></feature>
            <threshold>-7.3525984771549702e-004</threshold>
            <left_val>-3.7464303345327882e-001</left_val>
            <right_val>9.1278785945952290e-002</right_val></_></_>
        <_>
          <_>
            <feature>
              <rects>
                <_>
                  19 15 2 2 -1.</_>
                <_>
                  19 16 2 1 2.</_></rects>
              <tilted>0</tilted></feature>
            <threshold>5.8194977464154363e-004</threshold>
            <left_val>9.7825307864558675e-002</left_val>
            <right_val>-3.1322355174809968e-001</right_val></_></_>
        <_>
          <_>
            <feature>
              <rects>
                <_>
                  0 1 8 21 -1.</_>
                <_>
                  2 1 4 21 2.</_></rects>
              <tilted>0</tilted></feature>
            <threshold>-1.5866734087467194e-002</threshold>
            <left_val>2.2282372964210062e-001</left_val>
            <right_val>-1.3992144287153735e-001</right_val></_></_>
        <_>
          <_>
            <feature>
              <rects>
                <_>
                  9 8 3 1 -1.</_>
                <_>
                  10 8 1 1 3.</_></rects>
              <tilted>0</tilted></feature>
            <threshold>2.4646217934787273e-004</threshold>
            <left_val>1.2082948259441471e-001</left_val>
            <right_val>-2.6768122165137426e-001</right_val></_></_>
        <_>
          <_>
            <feature>
              <rects>
                <_>
                  17 10 6 14 -1.</_>
                <_>
                  17 10 3 7 2.</_>
                <_>
                  20 17 3 7 2.</_></rects>
              <tilted>0</tilted></feature>
            <threshold>3.3752914518117905e-002</threshold>
            <left_val>-8.0778034258177103e-002</left_val>
            <right_val>4.6692173673368814e-001</right_val></_></_>
        <_>
          <_>
            <feature>
              <rects>
                <_>
                  11 3 3 6 -1.</_>
                <_>
                  12 5 1 2 9.</_></rects>
              <tilted>0</tilted></feature>
            <threshold>-2.8283505234867334e-003</threshold>
            <left_val>2.0881932647783519e-001</left_val>
            <right_val>-1.6602809354915607e-001</right_val></_></_>
        <_>
          <_>
            <feature>
              <rects>
                <_>
                  8 6 12 18 -1.</_>
                <_>
                  8 6 6 9 2.</_>
                <_>
                  14 15 6 9 2.</_></rects>
              <tilted>0</tilted></feature>
            <threshold>9.7537145018577576e-002</threshold>
            <left_val>-6.3742062878931069e-002</left_val>
            <right_val>5.2094767127073083e-001</right_val></_></_>
        <_>
          <_>
            <feature>
              <rects>
                <_>
                  9 7 2 1 -1.</_>
                <_>
                  10 7 1 1 2.</_></rects>
              <tilted>0</tilted></feature>
            <threshold>-2.0023313118144870e-004</threshold>
            <left_val>-2.6193848563981337e-001</left_val>
            <right_val>1.3675202427855448e-001</right_val></_></_></trees>
      <stage_threshold>-1.5206427574157715e+000</stage_threshold>
      <parent>6</parent>
      <next>-1</next></_>
    <_>
      <trees>
        <_>
          <_>
            <feature>
              <rects>
                <_>
                  8 0 11 2 -1.</_>
                <_>
                  8 1 11 1 2.</_></rects>
              <tilted>0</tilted></feature>
            <threshold>1.3062349520623684e-002</threshold>
            <left_val>-5.8647968356702052e-001</left_val>
            <right_val>7.3985680190931546e-002</right_val></_></_>
        <_>
          <_>
            <feature>
              <rects>
                <_>
                  15 22 2 2 -1.</_>
                <_>
                  16 22 1 2 2.</_></rects>
              <tilted>0</tilted></feature>
            <threshold>-2.6637202245183289e-004</threshold>
            <left_val>-3.7185792492805864e-001</left_val>
            <right_val>4.4915433466437928e-002</right_val></_></_>
        <_>
          <_>
            <feature>
              <rects>
                <_>
                  0 11 2 12 -1.</_>
                <_>
                  1 11 1 12 2.</_></rects>
              <tilted>0</tilted></feature>
            <threshold>-1.4620902016758919e-002</threshold>
            <left_val>4.2893638784658794e-001</left_val>
            <right_val>-7.7652973304599401e-002</right_val></_></_>
        <_>
          <_>
            <feature>
              <rects>
                <_>
                  20 6 4 5 -1.</_>
                <_>
                  21 6 2 5 2.</_></rects>
              <tilted>0</tilted></feature>
            <threshold>5.2840621210634708e-003</threshold>
            <left_val>-9.4472781574358927e-002</left_val>
            <right_val>3.2155294552703523e-001</right_val></_></_>
        <_>
          <_>
            <feature>
              <rects>
                <_>
                  3 1 15 12 -1.</_>
                <_>
                  3 5 15 4 3.</_></rects>
              <tilted>0</tilted></feature>
            <threshold>-6.0754928737878799e-002</threshold>
            <left_val>1.9330475294487276e-001</left_val>
            <right_val>-1.6912300504428282e-001</right_val></_></_>
        <_>
          <_>
            <feature>
              <rects>
                <_>
                  21 5 3 17 -1.</_>
                <_>
                  22 5 1 17 3.</_></rects>
              <tilted>0</tilted></feature>
            <threshold>-7.6104523614048958e-003</threshold>
            <left_val>3.4142198102712495e-001</left_val>
            <right_val>-7.6294325221865175e-002</right_val></_></_>
        <_>
          <_>
            <feature>
              <rects>
                <_>
                  19 9 1 8 -1.</_>
                <_>
                  19 13 1 4 2.</_></rects>
              <tilted>0</tilted></feature>
            <threshold>1.0067010298371315e-003</threshold>
            <left_val>1.0140266096346309e-001</left_val>
            <right_val>-3.1147522511747977e-001</right_val></_></_>
        <_>
          <_>
            <feature>
              <rects>
                <_>
                  15 22 3 2 -1.</_>
                <_>
                  16 22 1 2 3.</_></rects>
              <tilted>0</tilted></feature>
            <threshold>4.9152370775118470e-004</threshold>
            <left_val>1.1462200185278903e-001</left_val>
            <right_val>-3.0872936236616699e-001</right_val></_></_>
        <_>
          <_>
            <feature>
              <rects>
                <_>
                  12 21 1 3 -1.</_>
                <_>
                  12 22 1 1 3.</_></rects>
              <tilted>0</tilted></feature>
            <threshold>-2.1918858692515641e-005</threshold>
            <left_val>1.5340235121544946e-001</left_val>
            <right_val>-1.8860236725775112e-001</right_val></_></_>
        <_>
          <_>
            <feature>
              <rects>
                <_>
                  8 1 6 3 -1.</_>
                <_>
                  8 2 6 1 3.</_></rects>
              <tilted>0</tilted></feature>
            <threshold>-4.8151966184377670e-003</threshold>
            <left_val>3.0962857190074522e-001</left_val>
            <right_val>-9.8783583216978499e-002</right_val></_></_>
        <_>
          <_>
            <feature>
              <rects>
                <_>
                  20 12 3 12 -1.</_>
                <_>
                  21 12 1 12 3.</_></rects>
              <tilted>0</tilted></feature>
            <threshold>-7.1612522006034851e-003</threshold>
            <left_val>3.0626766388826410e-001</left_val>
            <right_val>-8.8673488427285965e-002</right_val></_></_>
        <_>
          <_>
            <feature>
              <rects>
                <_>
                  14 2 2 1 -1.</_>
                <_>
                  15 2 1 1 2.</_></rects>
              <tilted>0</tilted></feature>
            <threshold>5.8075075503438711e-004</threshold>
            <left_val>7.5070165317618898e-002</left_val>
            <right_val>-3.9862275924863966e-001</right_val></_></_>
        <_>
          <_>
            <feature>
              <rects>
                <_>
                  14 0 2 3 -1.</_>
                <_>
                  15 0 1 3 2.</_></rects>
              <tilted>0</tilted></feature>
            <threshold>-1.2290673330426216e-003</threshold>
            <left_val>-3.0851705686154357e-001</left_val>
            <right_val>9.4014453686294491e-002</right_val></_></_>
        <_>
          <_>
            <feature>
              <rects>
                <_>
                  5 1 16 3 -1.</_>
                <_>
                  5 2 16 1 3.</_></rects>
              <tilted>0</tilted></feature>
            <threshold>7.2320899926126003e-003</threshold>
            <left_val>-1.1768752296487253e-001</left_val>
            <right_val>2.5960346804244272e-001</right_val></_></_>
        <_>
          <_>
            <feature>
              <rects>
                <_>
                  0 3 12 4 -1.</_>
                <_>
                  0 5 12 2 2.</_></rects>
              <tilted>0</tilted></feature>
            <threshold>-2.9804185032844543e-002</threshold>
            <left_val>-4.4002907536195396e-001</left_val>
            <right_val>6.5799269195457352e-002</right_val></_></_>
        <_>
          <_>
            <feature>
              <rects>
                <_>
                  16 23 4 1 -1.</_>
                <_>
                  17 23 2 1 2.</_></rects>
              <tilted>0</tilted></feature>
            <threshold>1.0598031803965569e-003</threshold>
            <left_val>6.0463165160174318e-002</left_val>
            <right_val>-4.3489082086849440e-001</right_val></_></_>
        <_>
          <_>
            <feature>
              <rects>
                <_>
                  18 8 6 10 -1.</_>
                <_>
                  20 10 2 10 3.</_></rects>
              <tilted>1</tilted></feature>
            <threshold>-2.4219525977969170e-002</threshold>
            <left_val>2.5158780976892553e-001</left_val>
            <right_val>-1.1481496974267337e-001</right_val></_></_>
        <_>
          <_>
            <feature>
              <rects>
                <_>
                  10 1 4 1 -1.</_>
                <_>
                  12 1 2 1 2.</_></rects>
              <tilted>0</tilted></feature>
            <threshold>-1.4637281419709325e-003</threshold>
            <left_val>-3.6220181845296207e-001</left_val>
            <right_val>8.2158022055117824e-002</right_val></_></_>
        <_>
          <_>
            <feature>
              <rects>
                <_>
                  9 1 4 5 -1.</_>
                <_>
                  10 2 2 5 2.</_></rects>
              <tilted>1</tilted></feature>
            <threshold>-6.4713396131992340e-003</threshold>
            <left_val>2.2104550061829750e-001</left_val>
            <right_val>-1.2600368524023445e-001</right_val></_></_>
        <_>
          <_>
            <feature>
              <rects>
                <_>
                  8 5 1 2 -1.</_>
                <_>
                  8 6 1 1 2.</_></rects>
              <tilted>0</tilted></feature>
            <threshold>6.8777927663177252e-004</threshold>
            <left_val>6.7132360556384885e-002</left_val>
            <right_val>-4.1995726988714516e-001</right_val></_></_>
        <_>
          <_>
            <feature>
              <rects>
                <_>
                  11 0 8 3 -1.</_>
                <_>
                  11 1 8 1 3.</_></rects>
              <tilted>0</tilted></feature>
            <threshold>-4.3065454810857773e-003</threshold>
            <left_val>3.1455726606325057e-001</left_val>
            <right_val>-9.6597970114142132e-002</right_val></_></_>
        <_>
          <_>
            <feature>
              <rects>
                <_>
                  11 7 6 9 -1.</_>
                <_>
                  13 10 2 3 9.</_></rects>
              <tilted>0</tilted></feature>
            <threshold>-3.5023014061152935e-003</threshold>
            <left_val>1.8584216404329693e-001</left_val>
            <right_val>-1.5208480227443399e-001</right_val></_></_>
        <_>
          <_>
            <feature>
              <rects>
                <_>
                  2 0 17 3 -1.</_>
                <_>
                  2 1 17 1 3.</_></rects>
              <tilted>0</tilted></feature>
            <threshold>6.3584083691239357e-003</threshold>
            <left_val>-1.3854023819944178e-001</left_val>
            <right_val>2.0664022726037434e-001</right_val></_></_>
        <_>
          <_>
            <feature>
              <rects>
                <_>
                  3 6 14 8 -1.</_>
                <_>
                  3 6 7 4 2.</_>
                <_>
                  10 10 7 4 2.</_></rects>
              <tilted>0</tilted></feature>
            <threshold>1.5022891573607922e-002</threshold>
            <left_val>-1.2763746229423983e-001</left_val>
            <right_val>2.2696661854449962e-001</right_val></_></_>
        <_>
          <_>
            <feature>
              <rects>
                <_>
                  0 10 4 14 -1.</_>
                <_>
                  0 10 2 7 2.</_>
                <_>
                  2 17 2 7 2.</_></rects>
              <tilted>0</tilted></feature>
            <threshold>-1.6893627122044563e-002</threshold>
            <left_val>2.9578194316407275e-001</left_val>
            <right_val>-1.0023612246301382e-001</right_val></_></_>
        <_>
          <_>
            <feature>
              <rects>
                <_>
                  22 16 2 2 -1.</_>
                <_>
                  22 16 2 1 2.</_></rects>
              <tilted>1</tilted></feature>
            <threshold>3.6377139622345567e-004</threshold>
            <left_val>-1.9345563834110213e-001</left_val>
            <right_val>1.5230308544499521e-001</right_val></_></_>
        <_>
          <_>
            <feature>
              <rects>
                <_>
                  21 2 2 3 -1.</_>
                <_>
                  20 3 2 1 3.</_></rects>
              <tilted>1</tilted></feature>
            <threshold>1.2211875990033150e-002</threshold>
            <left_val>-4.7773266498291014e-002</left_val>
            <right_val>5.6789936009106778e-001</right_val></_></_>
        <_>
          <_>
            <feature>
              <rects>
                <_>
                  8 1 2 1 -1.</_>
                <_>
                  9 1 1 1 2.</_></rects>
              <tilted>0</tilted></feature>
            <threshold>-4.9518240848556161e-004</threshold>
            <left_val>-3.5269449701754202e-001</left_val>
            <right_val>8.4998025062718585e-002</right_val></_></_>
        <_>
          <_>
            <feature>
              <rects>
                <_>
                  21 3 1 3 -1.</_>
                <_>
                  20 4 1 1 3.</_></rects>
              <tilted>1</tilted></feature>
            <threshold>-1.5285173431038857e-003</threshold>
            <left_val>2.3971522635350492e-001</left_val>
            <right_val>-1.0330341788090822e-001</right_val></_></_>
        <_>
          <_>
            <feature>
              <rects>
                <_>
                  2 1 2 2 -1.</_>
                <_>
                  2 1 1 2 2.</_></rects>
              <tilted>1</tilted></feature>
            <threshold>2.5770962238311768e-003</threshold>
            <left_val>8.6004201876916347e-002</left_val>
            <right_val>-2.8828188968441243e-001</right_val></_></_>
        <_>
          <_>
            <feature>
              <rects>
                <_>
                  9 21 4 2 -1.</_>
                <_>
                  9 21 2 1 2.</_>
                <_>
                  11 22 2 1 2.</_></rects>
              <tilted>0</tilted></feature>
            <threshold>-4.9582292558625340e-004</threshold>
            <left_val>-2.5540967706623718e-001</left_val>
            <right_val>8.7637538322592398e-002</right_val></_></_>
        <_>
          <_>
            <feature>
              <rects>
                <_>
                  8 0 2 6 -1.</_>
                <_>
                  8 0 2 3 2.</_></rects>
              <tilted>1</tilted></feature>
            <threshold>-9.7195729613304138e-003</threshold>
            <left_val>-2.9621684668335152e-001</left_val>
            <right_val>7.7967377812249092e-002</right_val></_></_>
        <_>
          <_>
            <feature>
              <rects>
                <_>
                  15 0 3 18 -1.</_>
                <_>
                  16 6 1 6 9.</_></rects>
              <tilted>0</tilted></feature>
            <threshold>-5.2441384643316269e-002</threshold>
            <left_val>-3.8318805429825642e-001</left_val>
            <right_val>6.8122389438200509e-002</right_val></_></_>
        <_>
          <_>
            <feature>
              <rects>
                <_>
                  2 2 12 17 -1.</_>
                <_>
                  5 2 6 17 2.</_></rects>
              <tilted>0</tilted></feature>
            <threshold>-1.6493529081344604e-002</threshold>
            <left_val>1.7709798265748589e-001</left_val>
            <right_val>-1.5766765949162057e-001</right_val></_></_>
        <_>
          <_>
            <feature>
              <rects>
                <_>
                  10 0 14 9 -1.</_>
                <_>
                  7 3 14 3 3.</_></rects>
              <tilted>1</tilted></feature>
            <threshold>-1.6300015151500702e-001</threshold>
            <left_val>-7.1429352687949721e-001</left_val>
            <right_val>3.5815651346890624e-002</right_val></_></_>
        <_>
          <_>
            <feature>
              <rects>
                <_>
                  10 4 13 20 -1.</_>
                <_>
                  10 14 13 10 2.</_></rects>
              <tilted>0</tilted></feature>
            <threshold>-3.4730470180511475e-001</threshold>
            <left_val>-7.1062615778787064e-001</left_val>
            <right_val>3.0599624732792145e-002</right_val></_></_>
        <_>
          <_>
            <feature>
              <rects>
                <_>
                  18 22 6 2 -1.</_>
                <_>
                  18 23 6 1 2.</_></rects>
              <tilted>0</tilted></feature>
            <threshold>-1.1315660085529089e-003</threshold>
            <left_val>-2.9439560032200307e-001</left_val>
            <right_val>7.7606279012152127e-002</right_val></_></_>
        <_>
          <_>
            <feature>
              <rects>
                <_>
                  20 7 1 3 -1.</_>
                <_>
                  20 8 1 1 3.</_></rects>
              <tilted>0</tilted></feature>
            <threshold>-7.0227484684437513e-005</threshold>
            <left_val>1.5684984295399845e-001</left_val>
            <right_val>-1.5396774441680303e-001</right_val></_></_>
        <_>
          <_>
            <feature>
              <rects>
                <_>
                  21 4 2 8 -1.</_>
                <_>
                  21 4 1 4 2.</_>
                <_>
                  22 8 1 4 2.</_></rects>
